svm_type c_svc
kernel_type rbf
gamma 0.0204082
nr_class 10
total_sv 3117
rho 0.0509955 -0.00878297 -0.615934 -0.171786 0.255398 0.0547447 0.0161157 -0.0560824 0.00518098 -0.0704505 -0.604705 -0.19985 0.195519 0.0526786 -0.048891 -0.10221 0.0105377 -0.547749 -0.118226 0.275875 0.109043 0.0440955 -0.039463 0.069878 0.490247 0.737889 0.644745 0.564589 0.544514 0.538677 0.37573 0.271901 0.137739 0.1589 0.166857 -0.183921 -0.252269 -0.315116 -0.224039 -0.0720892 -0.15891 -0.115069 -0.067074 0.0383493 0.0771451
label 5 0 4 1 9 2 3 6 7 8
nr_sv 327 306 336 138 333 417 358 278 285 339
SV
0 2.095839432026014e-11 4.535422005097674e-11 0 1.840837172900729e-10 5.6589543434711e-10 0 7.595350950225626e-11 6.062044865493773e-11 1:1 2:1 3:1 4:1 5:1 6:1 7:1 8:1 9:0.965957 10:0.98419 11:1 12:1 13:0.550201 14:0.263158 15:1 16:0.351779 17:0.0745098 18:0.992157 19:1 20:-0.317647 21:0.712963 22:1 23:0.015748 24:-0.0509804 25:0.027451 26:0.576471 27:-0.286275 28:1 29:1 30:-0.00392157 31:0.662745 32:0.411765 33:-0.654902 34:0.694118 35:1 36:1 37:0.0886076 38:1 39:1 40:0.960474 41:1 42:1 43:1 44:1 45:1 46:1 47:1 48:1 49:1 
1.342504132384947e-10 2.131951027418312e-10 3.082932762987683e-10 0 5.58652918957179e-10 4.781024544543339e-10 1.705950130894656e-10 2.467176297851356e-10 1.041925965557073e-09 1:1 2:1 3:1 4:1 5:1 6:1 7:1 8:1 9:1 10:1 11:1 12:0.47451 13:0.935743 14:1 15:1 16:1 17:1 18:0.701961 19:0.262745 20:0.568627 21:1 22:1 23:1 24:0.717647 25:0.105882 26:-0.160784 27:0.890196 28:1 29:1 30:1 31:0.0117647 32:0.992157 33:1 34:1 35:1 36:1 37:0.763713 38:0.0988142 39:1 40:1 41:1 42:1 43:1 44:0.583333 45:0.58042 46:1 47:1 48:1 49:1 
0 3.654481103955435e-10 2.91772546797223e-10 0 0 0 0 2.616420018609096e-10 0 1:1 2:1 3:1 4:1 5:1 6:1 7:1 8:1 9:1 10:1 11:1 12:0.686275 13:0.373494 14:1 15:1 16:1 17:1 18:0.427451 19:0.913725 20:0.247059 21:1 22:1 23:1 24:0.160784 25:0.0666667 26:0.0823529 27:0.882353 28:1 29:1 30:0.788235 31:0.192157 32:0.592157 33:0.772549 34:1 35:1 36:1 37:0.130802 38:0.731225 39:1 40:1 41:1 42:1 43:1 44:0.616667 45:1 46:1 47:1 48:1 49:1 
1.374504365351841e-10 9.067582373795674e-11 0 2.086791999312451e-11 1.436692264272738e-10 3.77761697300553e-10 1.150748715960346e-10 2.591582621011756e-11 0 1:1 2:1 3:1 4:1 5:1 6:1 7:1 8:1 9:1 10:1 11:1 12:1 13:0.293173 14:1 15:1 16:1 17:0.74902 18:-0.317647 19:0.937255 20:-0.47451 21:1 22:1 23:1 24:0.623529 25:0.309804 26:-0.129412 27:-0.192157 28:1 29:1 30:0.435294 31:0.152941 32:1 33:0.654902 34:0.937255 35:1 36:1 37:-0.0801688 38:0.494071 39:1 40:1 41:1 42:1 43:1 44:0.133333 45:0.776224 46:1 47:1 48:1 49:1 
1.76734388333037e-11 1.144979119832218e-09 7.065373676176325e-10 6.636780607744616e-10 7.599728012963538e-10 7.439999538176338e-10 2.149660743506474e-10 6.477508655600902e-10 5.164716686139673e-10 1:1 2:1 3:1 4:1 5:1 6:1 7:1 8:1 9:1 10:1 11:1 12:1 13:1 14:1 15:1 16:0.992095 17:0.309804 18:0.32549 19:0.678431 20:1 21:1 22:1 23:0.590551 24:-0.254902 25:0.482353 26:-0.341176 27:0.984314 28:1 29:1 30:0.145098 31:0.733333 32:1 33:0.364706 34:-0.113725 35:0.369458 36:1 37:0.687764 38:1 39:1 40:1 41:1 42:1 43:1 44:1 45:1 46:1 47:1 48:1 49:1 
3.812166248970018e-10 6.787393445477963e-10 1.796237643285703e-09 4.20080005408595e-10 1.510941574306174e-09 1.925090964670996e-09 1.08539501207284e-09 7.157705967310324e-10 1.312737411956756e-09 1:1 2:1 3:1 4:1 5:1 6:1 7:1 8:1 9:1 10:1 11:1 12:1 13:0.975904 14:1 15:1 16:0.944664 17:0.984314 18:1 19:1 20:0.105882 21:1 22:1 23:-0.692913 24:-0.372549 25:0.113725 26:0.223529 27:-0.380392 28:1 29:1 30:0.764706 31:0.976471 32:0.396078 33:0.207843 34:0.890196 35:1 36:1 37:1 38:1 39:1 40:1 41:1 42:1 43:1 44:1 45:1 46:1 47:1 48:1 49:1 
5.73036251151262e-10 3.681368729107644e-10 1.870695977636761e-10 3.637722913080277e-10 5.970943034634899e-10 2.745210335995313e-10 8.264866022469307e-10 3.305668397272276e-10 9.640621122726812e-10 1:1 2:1 3:1 4:1 5:1 6:1 7:1 8:1 9:1 10:1 11:1 12:0.380392 13:0.951807 14:1 15:1 16:0.968379 17:0.537255 18:1 19:-0.317647 20:-0.0823529 21:1 22:1 23:0.0314961 24:-0.498039 25:0.443137 26:1 27:-0.388235 28:1 29:1 30:-0.435294 31:0.929412 32:-0.372549 33:0.231373 34:-0.0823529 35:1 36:1 37:0.662447 38:1 39:0.866667 40:0.241107 41:0.937255 42:1 43:1 44:1 45:1 46:1 47:1 48:1 49:1 
0 0 2.939591273753895e-10 5.076006223321414e-11 1.591282577973458e-10 0 0 0 4.823336791901234e-11 1:1 2:1 3:1 4:1 5:1 6:1 7:1 8:1 9:1 10:1 11:1 12:0.301961 13:0.855422 14:1 15:1 16:1 17:1 18:0.654902 19:0.192157 20:0.796078 21:1 22:1 23:1 24:0.0745098 25:-0.254902 26:-0.00392157 27:0.992157 28:1 29:1 30:1 31:0.00392157 32:0.960784 33:0.984314 34:1 35:1 36:1 37:0.890295 38:0.162055 39:1 40:1 41:1 42:1 43:1 44:0.883333 45:0.888112 46:1 47:1 48:1 49:1 
0 0 0 5.33025852033245e-11 0 0 0 0 0 1:1 2:1 3:1 4:1 5:1 6:1 7:1 8:1 9:1 10:0.968379 11:1 12:1 13:1 14:1 15:1 16:0.320158 17:-0.435294 18:1 19:0.709804 20:0.0196078 21:1 22:1 23:-0.653543 24:0.027451 25:0.72549 26:1 27:-0.388235 28:1 29:1 30:-0.0431373 31:0.843137 32:-0.184314 33:0.2 34:-0.294118 35:1 36:1 37:1 38:1 39:0.756863 40:0.296443 41:0.898039 42:1 43:1 44:1 45:1 46:1 47:1 48:1 49:1 
2.019577151182828e-10 1.661273048484412e-10 1.007174703140642e-10 1.119139162954551e-10 2.245957638707819e-10 2.14324070084013e-10 1.641336083863616e-10 1.603768636925055e-10 1.909274633722717e-10 1:1 2:1 3:1 4:1 5:1 6:1 7:1 8:1 9:1 10:1 11:1 12:0.905882 13:0.445783 14:1 15:1 16:0.905138 17:0.0196078 18:0.560784 19:0.992157 20:-0.47451 21:0.583333 22:1 23:0.76378 24:-0.843137 25:0.129412 26:0.121569 27:-0.670588 28:0.613208 29:1 30:0.317647 31:-0.239216 32:1 33:0.631373 34:0.34902 35:1 36:1 37:-0.181435 38:0.525692 39:1 40:1 41:1 42:1 43:1 44:0.183333 45:1 46:1 47:1 48:1 49:1 
4.71838367675993e-10 5.726755702507376e-11 0 9.879842981467357e-11 1.57234159308739e-10 8.915852163843323e-10 6.13028751474327e-11 3.608550651788149e-11 6.648975134023431e-11 1:1 2:1 3:1 4:1 5:1 6:1 7:1 8:1 9:1 10:1 11:1 12:-0.00392157 13:0.863454 14:1 15:1 16:1 17:0.788235 18:0.686275 19:0.811765 20:-0.027451 21:1 22:1 23:0.929134 24:-0.427451 25:-0.207843 26:0.976471 27:-0.0823529 28:1 29:1 30:0.741176 31:-0.121569 32:0.152941 33:-0.262745 34:0.529412 35:1 36:1 37:0.451477 38:0.343874 39:1 40:1 41:1 42:1 43:1 44:1 45:1 46:1 47:1 48:1 49:1 
2.380682668052457e-10 1.049236974297398e-10 2.61025372287383e-11 3.730630673077696e-10 1.34284837691989e-10 3.190822796391533e-10 4.634950316694933e-10 9.636698652890805e-11 5.511505479835904e-10 1:1 2:1 3:1 4:1 5:1 6:1 7:1 8:1 9:0.982979 10:0.98419 11:0.98419 12:0.984314 13:1 14:1 15:1 16:-0.114625 17:-0.47451 18:-0.756863 19:0.00392157 20:0.427451 21:0.657407 22:1 23:-0.472441 24:0.215686 25:-0.490196 26:0.678431 27:-0.270588 28:0.632075 29:1 30:-0.380392 31:0.388235 32:-0.670588 33:0.0823529 34:-0.490196 35:0.940887 36:1 37:0.746835 38:0.952569 39:0.152941 40:0.106719 41:0.929412 42:1 43:1 44:1 45:1 46:1 47:1 48:1 49:1 
0 0 0 0 0 4.532758363918581e-10 0 0 0 1:1 2:1 3:1 4:0.865672 5:0.870968 6:1 7:1 8:1 9:1 10:1 11:0.952569 12:-0.152941 13:0.943775 14:1 15:1 16:1 17:0.403922 18:0.47451 19:0.552941 20:0.341176 21:1 22:1 23:0.952756 24:-0.176471 25:-0.027451 26:0.403922 27:0.137255 28:1 29:1 30:0.498039 31:0.137255 32:0.160784 33:-0.0745098 34:0.929412 35:1 36:1 37:0.240506 38:0.628458 39:1 40:1 41:1 42:1 43:1 44:1 45:1 46:1 47:1 48:1 49:1 
2.893261913996541e-10 2.620690004395484e-10 1.379839957418281e-10 1.615127676048281e-10 4.24879865638729e-10 1.532355087856801e-10 1.703362742142593e-10 2.404499070977289e-10 2.394999875591113e-10 1:1 2:1 3:1 4:1 5:1 6:1 7:1 8:1 9:0.957447 10:0.936759 11:1 12:0.945098 13:0.662651 14:1 15:1 16:-0.0750988 17:-0.309804 18:0.87451 19:0.701961 20:-0.294118 21:1 22:1 23:-0.125984 24:0.780392 25:-0.380392 26:0.803922 27:-0.247059 28:1 29:1 30:-0.0745098 31:0.984314 32:0.827451 33:-0.32549 34:-0.498039 35:1 36:1 37:0.257384 38:1 39:1 40:0.873518 41:0.333333 42:1 43:1 44:1 45:1 46:1 47:1 48:1 49:1 
1.66323586369018e-10 1.120856040028665e-10 0 1.2519619826923e-10 5.847712921504088e-11 1.945206482532864e-10 9.439600623882056e-11 3.813901425305255e-10 0 1:1 2:1 3:1 4:0.910448 5:0.596774 6:1 7:1 8:1 9:1 10:1 11:0.936759 12:-0.00392157 13:0.799197 14:1 15:1 16:1 17:0.827451 18:0.411765 19:0.827451 20:0.0509804 21:1 22:1 23:0.976378 24:-0.364706 25:-0.176471 26:0.945098 27:-0.0352941 28:1 29:1 30:0.803922 31:-0.0352941 32:0.0980392 33:-0.2 34:0.733333 35:1 36:1 37:0.704641 38:0.494071 39:0.992157 40:0.992095 41:1 42:1 43:1 44:1 45:1 46:1 47:1 48:1 49:1 
8.272813635919192e-10 4.848566653798004e-10 1.358883810471587e-10 2.301010164642335e-10 7.550951535637252e-10 6.078491522070436e-10 9.364202859620856e-10 4.225573907369513e-10 4.443486121233049e-10 1:1 2:1 3:1 4:1 5:1 6:1 7:1 8:1 9:1 10:1 11:1 12:0.780392 13:0.967871 14:1 15:1 16:1 17:1 18:0.984314 19:-0.105882 20:0.0196078 21:1 22:0.675325 23:-0.511811 24:-0.34902 25:0.584314 26:0.87451 27:-0.419608 28:1 29:0.354839 30:0.0823529 31:0.952941 32:-0.231373 33:-0.513725 34:0.411765 35:1 36:1 37:0.924051 38:1 39:0.882353 40:0.73913 41:1 42:1 43:1 44:1 45:1 46:1 47:1 48:1 49:1 
6.635620868891816e-11 0 0 0 1.047342831266877e-10 4.470648482326146e-10 0 2.282096408973941e-11 2.679798451910007e-10 1:1 2:1 3:1 4:1 5:1 6:1 7:1 8:1 9:0.242553 10:0.731225 11:1 12:0.364706 13:0.726908 14:1 15:1 16:-0.00395257 17:-0.152941 18:0.552941 19:0.905882 20:0.129412 21:0.944444 22:1 23:-0.0944882 24:0.670588 25:0.294118 26:1 27:0.552941 28:0.45283 29:1 30:-0.0196078 31:0.835294 32:-0.0980392 33:0.87451 34:-0.0823529 35:0.842365 36:1 37:0.991561 38:1 39:0.537255 40:-0.114625 41:0.576471 42:1 43:1 44:1 45:1 46:1 47:1 48:1 49:1 
5.822001152805923e-10 3.174954909744752e-10 1.283626971168954e-10 2.733617221823748e-10 3.743880088193993e-10 4.348512326242852e-10 4.678864674892133e-10 3.146744248395997e-10 3.321562099623288e-10 1:1 2:1 3:1 4:1 5:1 6:1 7:1 8:1 9:1 10:0.968379 11:0.992095 12:-0.152941 13:0.84739 14:1 15:1 16:0.770751 17:-0.741176 18:0.709804 19:0.827451 20:-0.0745098 21:1 22:1 23:0.566929 24:-0.388235 25:0.764706 26:1 27:-0.113725 28:1 29:1 30:0.32549 31:0.254902 32:0.192157 33:0.984314 34:-0.207843 35:1 36:1 37:0.510549 38:0.905138 39:0.137255 40:-0.225296 41:0.45098 42:1 43:1 44:1 45:1 46:1 47:1 48:1 49:1 
0 0 0 0 0 9.480835464237014e-10 0 0 2.659582046374364e-10 1:1 2:1 3:1 4:1 5:1 6:1 7:1 8:1 9:0.668085 10:0.928854 11:1 12:1 13:1 14:1 15:1 16:0.146245 17:0.215686 18:0.2 19:1 20:0.74902 21:1 22:1 23:0.0787402 24:0.882353 25:0.270588 26:1 27:0.458824 28:0.641509 29:1 30:0.952941 31:0.952941 32:0.0823529 33:0.984314 34:0.152941 35:0.694581 36:1 37:1 38:1 39:0.701961 40:0.264822 41:0.717647 42:1 43:1 44:1 45:1 46:1 47:1 48:1 49:1 
2.997502777166152e-11 1.197606364925973e-11 0 0 0 0 5.808371180754165e-10 0 0 1:1 2:1 3:1 4:1 5:1 6:1 7:1 8:1 9:1 10:1 11:0.699605 12:0.827451 13:1 14:1 15:1 16:1 17:0.145098 18:-0.890196 19:0.443137 20:-0.137255 21:0.87963 22:1 23:0.259843 24:-0.231373 25:-0.584314 26:0.490196 27:-0.670588 28:0.622642 29:1 30:-0.380392 31:0.835294 32:-0.176471 33:-0.733333 34:0.341176 35:1 36:1 37:0.156118 38:0.944664 39:0.913725 40:0.841897 41:1 42:1 43:1 44:1 45:1 46:1 47:1 48:1 49:1 
1.570422112367756e-10 0 2.542063933649109e-10 3.092282216939603e-11 6.041125210233324e-10 5.121508684689211e-10 3.362080255606667e-10 1.762347567161771e-10 9.096226596216302e-10 1:1 2:1 3:1 4:1 5:1 6:1 7:1 8:1 9:1 10:1 11:1 12:1 13:1 14:1 15:1 16:0.715415 17:0.152941 18:0.780392 19:0.968627 20:0.529412 21:1 22:1 23:-0.480315 24:0.686275 25:-0.192157 26:0.498039 27:-0.34902 28:1 29:1 30:0.247059 31:0.843137 32:0.968627 33:-0.129412 34:-0.443137 35:1 36:1 37:1 38:1 39:1 40:1 41:1 42:1 43:1 44:1 45:1 46:1 47:1 48:1 49:1 
0 0 0 0 0 1.323143193904148e-09 1.174938945964172e-10 0 0 1:1 2:1 3:1 4:1 5:1 6:1 7:1 8:1 9:1 10:1 11:1 12:1 13:0.983936 14:1 15:1 16:1 17:0.960784 18:0.0666667 19:0.74902 20:0.0666667 21:1 22:1 23:0.23622 24:0.262745 25:0.160784 26:0.992157 27:0.192157 28:1 29:1 30:0.270588 31:0.87451 32:0.286275 33:0.192157 34:0.521569 35:1 36:1 37:0.755274 38:0.952569 39:1 40:1 41:1 42:1 43:1 44:1 45:1 46:1 47:1 48:1 49:1 
1.759368927154779e-10 0 0 0 1.200761526296334e-10 6.709287521220713e-10 0 0 0 1:1 2:1 3:1 4:1 5:1 6:1 7:1 8:1 9:1 10:1 11:1 12:-0.168627 13:0.879518 14:1 15:1 16:1 17:0.733333 18:0.545098 19:0.74902 20:0.254902 21:1 22:1 23:0.976378 24:0.0980392 25:0.105882 26:0.803922 27:0.00392157 28:1 29:1 30:0.223529 31:0.490196 32:0.356863 33:-0.301961 34:0.74902 35:1 36:1 37:0.0295359 38:0.905138 39:1 40:1 41:1 42:1 43:1 44:1 45:1 46:1 47:1 48:1 49:1 
0 0 9.115771013181855e-11 1.246454295462925e-10 5.805897368845909e-10 3.185816211021202e-10 2.788046393218027e-10 4.243124466076335e-10 1.27691942376457e-09 1:1 2:1 3:1 4:1 5:1 6:1 7:1 8:1 9:1 10:1 11:1 12:0.403922 13:1 14:1 15:1 16:1 17:0.992157 18:0.843137 19:0.513725 20:0.545098 21:1 22:1 23:1 24:0.215686 25:-0.152941 26:0.356863 27:0.529412 28:1 29:1 30:1 31:0.184314 32:0.537255 33:0.286275 34:1 35:1 36:1 37:1 38:0.185771 39:1 40:1 41:1 42:1 43:1 44:1 45:0.748252 46:1 47:1 48:1 49:1 
0 0 0 2.427497519413548e-09 0 7.214739036733034e-10 0 1.998845660385529e-10 0 1:1 2:1 3:1 4:1 5:1 6:1 7:1 8:1 9:1 10:1 11:1 12:1 13:1 14:1 15:1 16:0.968379 17:0.356863 18:0.356863 19:1 20:0.843137 21:0.416667 22:1 23:0.291339 24:0.278431 25:0.0431373 26:0.796078 27:-0.121569 28:0.858491 29:1 30:0.0431373 31:0.866667 32:0.0117647 33:0.027451 34:0.866667 35:1 36:1 37:0.805907 38:0.968379 39:1 40:1 41:1 42:1 43:1 44:1 45:1 46:1 47:1 48:1 49:1 
2.998520748779763e-11 0 0 0 0 0 0 0 0 1:1 2:1 3:1 4:1 5:1 6:1 7:1 8:1 9:1 10:1 11:0.98419 12:0.121569 13:1 14:1 15:1 16:1 17:0.85098 18:0.568627 19:0.0980392 20:0.87451 21:1 22:1 23:1 24:-0.0901961 25:0.0823529 26:0.411765 27:0.584314 28:1 29:1 30:0.819608 31:0.0588235 32:0.396078 33:-0.152941 34:0.952941 35:1 36:1 37:0.654008 38:0.509881 39:1 40:1 41:1 42:1 43:1 44:1 45:1 46:1 47:1 48:1 49:1 
5.800164158885886e-12 0 0 1.344226014720198e-10 0 0 9.487164942423712e-12 0 1.38626055290566e-09 1:1 2:1 3:1 4:1 5:1 6:1 7:1 8:1 9:1 10:0.98419 11:1 12:1 13:1 14:1 15:1 16:0.399209 17:-0.592157 18:-0.678431 19:0.32549 20:0.192157 21:0.962963 22:1 23:-0.464567 24:0.717647 25:-0.396078 26:0.309804 27:-0.443137 28:0.462264 29:1 30:-0.0901961 31:0.396078 32:0.686275 33:-0.192157 34:-0.137255 35:0.891626 36:1 37:0.679325 38:0.557312 39:1 40:1 41:1 42:1 43:1 44:1 45:1 46:1 47:1 48:1 49:1 
0 0 0 0 0 0 3.617844675983177e-10 0 0 1:1 2:1 3:1 4:1 5:1 6:1 7:1 8:1 9:1 10:1 11:1 12:1 13:0.88755 14:1 15:1 16:1 17:0.262745 18:-0.168627 19:0.513725 20:-0.372549 21:1 22:1 23:0.181102 24:-0.364706 25:0.333333 26:1 27:-0.176471 28:1 29:1 30:-0.0509804 31:0.709804 32:-0.301961 33:-0.247059 34:0.341176 35:1 36:1 37:0.434599 38:1 39:1 40:1 41:1 42:1 43:1 44:1 45:1 46:1 47:1 48:1 49:1 
0 0 3.849004778978851e-10 0 4.895118860036541e-10 1.360933131043932e-09 0 2.287162421113416e-10 2.451717381674562e-09 1:1 2:1 3:1 4:1 5:1 6:1 7:1 8:1 9:1 10:1 11:1 12:1 13:1 14:1 15:1 16:0.359684 17:0.309804 18:0.811765 19:1 20:0.72549 21:0.953704 22:1 23:0.173228 24:0.85098 25:0.0588235 26:0.639216 27:0.568627 28:0.518868 29:1 30:0.607843 31:0.992157 32:0.992157 33:0.388235 34:0.239216 35:0.980296 36:1 37:1 38:1 39:1 40:1 41:1 42:1 43:1 44:1 45:1 46:1 47:1 48:1 49:1 
1.669705917403727e-10 1.448746986010807e-10 3.967177294219915e-11 1.186807759177862e-10 1.70294966211895e-10 2.129630794047788e-10 1.557915690339027e-10 1.425272350015797e-10 1.233377369260344e-10 1:1 2:1 3:1 4:1 5:1 6:1 7:1 8:1 9:0.855319 10:0.636364 11:1 12:0.701961 13:-0.140562 14:1 15:1 16:-0.541502 17:-0.145098 18:0.247059 19:0.709804 20:-0.427451 21:1 22:1 23:-0.275591 24:0.992157 25:-0.301961 26:1 27:-0.364706 28:1 29:1 30:-0.32549 31:0.937255 32:-0.0666667 33:0.239216 34:-0.152941 35:1 36:1 37:0.07173 38:0.976285 39:0.764706 40:-0.304348 41:0.85098 42:1 43:1 44:1 45:1 46:1 47:1 48:1 49:1 
1.381764980856698e-10 4.040074882224062e-11 0 4.113156247211091e-10 1.318723550318215e-10 2.59029496371784e-10 1.231170511609959e-10 1.440905726507778e-10 1.298019176446482e-10 1:1 2:1 3:1 4:1 5:1 6:1 7:1 8:1 9:1 10:0.715415 11:0.747036 12:1 13:1 14:1 15:1 16:0.272727 17:-0.47451 18:-0.223529 19:1 20:-0.0352941 21:0.777778 22:1 23:0.401575 24:-0.254902 25:-0.160784 26:0.780392 27:-0.317647 28:0.54717 29:1 30:1 31:-0.34902 32:0.780392 33:-0.505882 34:-0.0666667 35:1 36:1 37:1 38:-0.0434783 39:1 40:1 41:1 42:1 43:1 44:1 45:1 46:1 47:1 48:1 49:1 
1.156060919691317e-09 0 0 8.022011095219437e-10 0 3.599953945359239e-09 0 2.456661456433017e-10 0 1:1 2:1 3:1 4:1 5:1 6:1 7:1 8:1 9:1 10:1 11:1 12:1 13:1 14:1 15:1 16:0.762846 17:0.47451 18:0.780392 19:0.788235 20:0.231373 21:1 22:1 23:-0.251969 24:0.301961 25:0.584314 26:0.843137 27:-0.270588 28:1 29:1 30:0.772549 31:0.85098 32:0.0745098 33:-0.0196078 34:0.866667 35:1 36:1 37:1 38:1 39:1 40:1 41:1 42:1 43:1 44:1 45:1 46:1 47:1 48:1 49:1 
0 0 0 0 0 1.365344048760651e-11 0 0 3.04450554752669e-10 1:1 2:1 3:1 4:1 5:1 6:1 7:1 8:1 9:0.982979 10:0.272727 11:0.15415 12:1 13:1 14:1 15:1 16:0.0434783 17:0.192157 18:-0.0196078 19:0.788235 20:0.286275 21:1 22:1 23:0.582677 24:0.678431 25:0.2 26:0.733333 27:0.105882 28:0.754717 29:1 30:0.47451 31:0.921569 32:0.741176 33:0.247059 34:0.0980392 35:0.773399 36:1 37:0.0464135 38:1 39:1 40:0.0118577 41:0.286275 42:1 43:1 44:0.783333 45:1 46:1 47:1 48:1 49:1 
0 0 0 1.444696821395369e-10 0 0 0 3.077625805474154e-10 0 1:1 2:1 3:1 4:1 5:1 6:1 7:1 8:1 9:1 10:1 11:1 12:0.898039 13:0.389558 14:1 15:1 16:1 17:0.882353 18:0.317647 19:0.780392 20:0.458824 21:1 22:1 23:1 24:0.0117647 25:0.0352941 26:0.0431373 27:0.945098 28:1 29:1 30:1 31:-0.00392157 32:0.811765 33:0.701961 34:1 35:1 36:1 37:1 38:0.177866 39:1 40:1 41:1 42:1 43:1 44:1 45:0.748252 46:1 47:1 48:1 49:1 
0 0 4.155588068320248e-10 2.17667297656589e-11 0 0 0 0 1.644496515531244e-10 1:1 2:1 3:1 4:1 5:1 6:1 7:1 8:1 9:1 10:1 11:1 12:0.913725 13:0.823293 14:1 15:1 16:1 17:0.905882 18:0.419608 19:0.552941 20:-0.372549 21:1 22:1 23:0.968504 24:-0.152941 25:-0.0745098 26:0.0745098 27:0.168627 28:1 29:1 30:0.686275 31:0.113725 32:0.129412 33:0.160784 34:0.952941 35:1 36:1 37:0.729958 38:0.43083 39:1 40:1 41:1 42:1 43:1 44:0.733333 45:0.454545 46:1 47:1 48:1 49:1 
0 0 6.937717048163159e-11 9.756554910242653e-11 1.299459666252855e-10 0 3.796555019098259e-12 0 2.148829014078952e-10 1:1 2:1 3:1 4:1 5:1 6:1 7:1 8:1 9:1 10:1 11:1 12:1 13:0.405622 14:1 15:1 16:1 17:0.545098 18:0.537255 19:0.992157 20:-0.505882 21:1 22:1 23:0.92126 24:0.0196078 25:-0.0352941 26:-0.027451 27:0.47451 28:1 29:1 30:0.192157 31:0.835294 32:0.819608 33:0.780392 34:1 35:1 36:1 37:-0.00421941 38:1 39:1 40:1 41:1 42:1 43:1 44:0.416667 45:1 46:1 47:1 48:1 49:1 
5.100233399946031e-10 4.912286469802234e-10 2.517754192349517e-10 4.623377862082593e-10 8.09362558298746e-10 7.830650993744958e-10 4.662383640236629e-10 5.022487176812398e-10 5.923634274026415e-10 1:1 2:1 3:1 4:1 5:1 6:1 7:1 8:1 9:1 10:1 11:1 12:1 13:-0.24498 14:1 15:1 16:-0.438735 17:-0.231373 18:0.85098 19:1 20:-0.443137 21:1 22:1 23:-0.322835 24:0.788235 25:-0.0666667 26:0.87451 27:-0.286275 28:1 29:1 30:0.027451 31:0.686275 32:-0.215686 33:0.0509804 34:0.443137 35:1 36:1 37:0.56962 38:0.754941 39:0.592157 40:-0.304348 41:0.984314 42:1 43:1 44:1 45:1 46:1 47:1 48:1 49:1 
2.972668933723057e-10 2.635065001691251e-10 1.063598173409652e-10 1.83681127786678e-10 3.520099308239378e-10 2.489474427722097e-10 4.67984756110954e-10 2.781473925235377e-10 3.295135905926245e-10 1:1 2:1 3:1 4:1 5:1 6:1 7:1 8:1 9:0.965957 10:0.541502 11:0.778656 12:0.984314 13:1 14:1 15:1 16:0.177866 17:-0.764706 18:-0.772549 19:0.239216 20:0.74902 21:0.990741 22:1 23:-0.181102 24:0.458824 25:-0.576471 26:0.905882 27:-0.670588 28:0.481132 29:1 30:-0.380392 31:0.47451 32:-0.301961 33:0.443137 34:-0.521569 35:0.940887 36:1 37:0.839662 38:0.98419 39:0.0823529 40:-0.264822 41:0.756863 42:1 43:1 44:1 45:1 46:1 47:1 48:1 49:1 
6.556328069612132e-10 7.265108220737184e-10 1.408226319198903e-10 1.179594220279727e-09 7.039307374786863e-10 4.47254703118687e-10 4.669951403589316e-10 1.134698727244006e-09 4.631956594399694e-10 1:1 2:1 3:1 4:1 5:1 6:1 7:1 8:1 9:1 10:0.897233 11:-0.0434783 12:0.733333 13:1 14:1 15:1 16:1 17:-0.592157 18:0.364706 19:0.498039 20:1 21:1 22:1 23:0.858268 24:-0.0431373 25:0.74902 26:0.45098 27:1 28:0.877358 29:1 30:0.662745 31:0.137255 32:0.984314 33:-0.0666667 34:0.0588235 35:-0.0541872 36:1 37:0.459916 38:0.549407 39:1 40:0.944664 41:0.905882 42:1 43:1 44:0.916667 45:0.776224 46:1 47:1 48:1 49:1 
2.275531367807837e-10 0 0 0 0 0 0 6.636593391650262e-12 1.268707955250964e-10 1:1 2:1 3:1 4:1 5:1 6:1 7:1 8:1 9:1 10:1 11:0.754941 12:0.403922 13:1 14:1 15:1 16:1 17:0.74902 18:-0.756863 19:-0.105882 20:0.882353 21:1 22:1 23:1 24:-0.129412 25:-0.215686 26:-0.0823529 27:0.843137 28:1 29:1 30:1 31:-0.137255 32:0.552941 33:-0.129412 34:1 35:1 36:1 37:0.839662 38:-0.0197628 39:1 40:1 41:1 42:1 43:1 44:0.583333 45:0.468531 46:1 47:1 48:1 49:1 
0 1.268213963118535e-10 5.257553640810459e-11 5.628219868070342e-10 1.383447595582126e-10 2.994961861885148e-10 0 1.206325397028129e-10 9.093483608663616e-11 1:1 2:1 3:1 4:1 5:1 6:1 7:1 8:1 9:0.87234 10:0.494071 11:0.612648 12:1 13:0.975904 14:1 15:1 16:-0.114625 17:-0.937255 18:-0.780392 19:1 20:-0.32549 21:0.916667 22:1 23:-0.409449 24:0.2 25:-0.152941 26:0.992157 27:-0.615686 28:0.59434 29:1 30:-0.231373 31:0.0352941 32:-0.262745 33:-0.152941 34:-0.639216 35:0.940887 36:1 37:0.873418 38:0.818182 39:-0.0196078 40:-0.15415 41:0.741176 42:1 43:1 44:1 45:1 46:1 47:1 48:1 49:1 
5.194053521788487e-10 4.844737913345354e-10 1.851456414191141e-10 4.262292161343297e-10 5.817765066573793e-10 6.649436500953791e-10 7.960606410810495e-10 4.55537417293378e-10 6.608580291387563e-10 1:1 2:1 3:1 4:1 5:1 6:1 7:1 8:1 9:1 10:0.683794 11:0.72332 12:0.498039 13:0.196787 14:1 15:1 16:0.968379 17:-0.686275 18:-0.435294 19:0.796078 20:-0.0666667 21:1 22:1 23:0.874016 24:-0.278431 25:-0.207843 26:1 27:-0.121569 28:1 29:1 30:0.309804 31:0.184314 32:-0.231373 33:0.858824 34:-0.341176 35:1 36:1 37:-0.113924 38:0.905138 39:-0.0666667 40:-0.391304 41:0.709804 42:1 43:1 44:1 45:1 46:1 47:1 48:1 49:1 
0 0 0 0 0 0 2.878711637455058e-11 0 0 1:1 2:1 3:1 4:1 5:1 6:1 7:1 8:1 9:1 10:1 11:1 12:1 13:0.919679 14:1 15:1 16:0.98419 17:-0.121569 18:-0.498039 19:0.913725 20:0.0352941 21:1 22:1 23:0.125984 24:-0.027451 25:0.0745098 26:0.0823529 27:-0.47451 28:1 29:1 30:-0.482353 31:0.984314 32:0.866667 33:-0.45098 34:0.301961 35:1 36:1 37:0.637131 38:1 39:1 40:1 41:1 42:1 43:1 44:1 45:1 46:1 47:1 48:1 49:1 
1.349914327945413e-09 9.978732695915333e-10 5.194391441258318e-10 8.015795593925517e-10 1.392548032682964e-09 1.261274742687655e-09 8.486919350860798e-10 8.737234146309888e-10 9.694290413592847e-10 1:1 2:1 3:1 4:1 5:1 6:1 7:1 8:1 9:1 10:1 11:0.944664 12:-0.152941 13:0.309237 14:1 15:1 16:1 17:0.505882 18:0.294118 19:0.129412 20:-0.00392157 21:1 22:1 23:0.692913 24:-0.6 25:0.176471 26:-0.529412 27:0.709804 28:1 29:1 30:-0.0117647 31:-0.592157 32:-0.411765 33:0.027451 34:1 35:1 36:1 37:0.0801688 38:0.992095 39:0.85098 40:1 41:1 42:1 43:1 44:0.75 45:1 46:1 47:1 48:1 49:1 
0 0 0 0 0 3.612857419754834e-10 0 0 0 1:1 2:1 3:1 4:1 5:1 6:1 7:1 8:1 9:1 10:1 11:1 12:1 13:1 14:1 15:1 16:1 17:0.521569 18:0.780392 19:0.929412 20:-0.027451 21:1 22:1 23:0.173228 24:-0.505882 25:-0.0823529 26:0.741176 27:-0.6 28:1 29:1 30:-0.482353 31:0.976471 32:0.121569 33:-0.247059 34:0.403922 35:1 36:1 37:0.763713 38:1 39:1 40:1 41:1 42:1 43:1 44:1 45:1 46:1 47:1 48:1 49:1 
0 0 3.869029997778472e-11 0 0 4.128196965133073e-10 1.103667634839026e-12 0 0 1:1 2:1 3:1 4:1 5:1 6:1 7:1 8:1 9:1 10:1 11:0.928854 12:0.843137 13:0.0281124 14:1 15:1 16:1 17:0.513725 18:-0.482353 19:1 20:-0.435294 21:1 22:1 23:-0.00787402 24:-0.482353 25:0.341176 26:0.929412 27:-0.262745 28:1 29:1 30:0.0117647 31:0.827451 32:-0.45098 33:-0.505882 34:0.513725 35:1 36:1 37:0.485232 38:1 39:0.960784 40:0.857708 41:1 42:1 43:1 44:1 45:1 46:1 47:1 48:1 49:1 
0 5.930965543463344e-10 0 7.524455068825665e-10 0 0 2.928149269063461e-09 0 5.488759538602898e-10 1:1 2:1 3:1 4:1 5:1 6:1 7:1 8:1 9:1 10:1 11:1 12:1 13:1 14:1 15:1 16:0.683794 17:0.121569 18:-0.176471 19:0.192157 20:0.960784 21:0.990741 22:1 23:0.0629921 24:0.396078 25:0.129412 26:0.701961 27:0.137255 28:0.556604 29:1 30:0.239216 31:1 32:-0.113725 33:0.0745098 34:-0.0352941 35:0.980296 36:1 37:1 38:1 39:0.72549 40:0.715415 41:1 42:1 43:1 44:1 45:1 46:1 47:1 48:1 49:1 
3.714936288874912e-11 0 5.001528404435862e-11 5.177248193398827e-11 9.396179669654762e-12 7.977336475445742e-11 0 0 0 1:1 2:1 3:1 4:1 5:1 6:0.544554 7:1 8:1 9:1 10:0.98419 11:0.905138 12:1 13:-0.220884 14:1 15:1 16:0.976285 17:-0.2 18:-0.0196078 19:1 20:-0.270588 21:1 22:1 23:-0.102362 24:-0.113725 25:0.505882 26:0.960784 27:-0.333333 28:1 29:1 30:-0.105882 31:0.333333 32:-0.0352941 33:-0.364706 34:0.419608 35:1 36:1 37:0.189873 38:0.960474 39:0.560784 40:0.818182 41:1 42:1 43:1 44:1 45:1 46:1 47:1 48:1 49:1 
8.369924828246681e-11 9.761988717507889e-11 3.715644736311056e-11 5.883329310413905e-11 1.154856475114243e-10 5.991685513633352e-11 2.798198231622195e-10 9.532945145228978e-11 7.344007516056423e-11 1:1 2:1 3:1 4:1 5:1 6:1 7:1 8:1 9:1 10:0.881423 11:0.0592885 12:0.960784 13:0.261044 14:0.986842 15:1 16:0.992095 17:-0.309804 18:-0.615686 19:0.984314 20:-0.419608 21:0.777778 22:1 23:-0.110236 24:-0.129412 25:-0.105882 26:1 27:-0.419608 28:0.886792 29:1 30:-0.286275 31:0.796078 32:-0.458824 33:0.176471 34:-0.482353 35:0.990148 36:1 37:-0.392405 38:1 39:0.34902 40:-0.027668 41:0.796078 42:1 43:1 44:0.233333 45:1 46:1 47:1 48:1 49:1 
4.240480604803508e-10 2.903883809441684e-10 1.219555957480759e-10 1.10668940062458e-10 4.38101972026843e-10 3.668631263402246e-10 2.724035750740977e-10 2.448413527215207e-10 2.831172871764309e-10 1:1 2:1 3:1 4:1 5:1 6:1 7:1 8:1 9:0.897872 10:0.699605 11:0.312253 12:0.882353 13:0.686747 14:0.934211 15:1 16:0.391304 17:-0.160784 18:-0.341176 19:0.913725 20:0.803922 21:0.101852 22:1 23:0.220472 24:0.788235 25:0.341176 26:1 27:0.803922 28:-0.0660377 29:1 30:0.0431373 31:0.905882 32:0.0509804 33:0.803922 34:-0.254902 35:0.773399 36:1 37:0.333333 38:0.699605 39:0.678431 40:0.00395257 41:0.654902 42:1 43:1 44:0.95 45:0.636364 46:1 47:1 48:1 49:1 
0 0 0 8.853210862742884e-10 0 2.375361621808409e-11 0 0 2.671534480709192e-10 1:1 2:1 3:1 4:1 5:1 6:1 7:1 8:1 9:1 10:0.960474 11:1 12:1 13:1 14:1 15:1 16:-0.359684 17:-0.333333 18:0.254902 19:1 20:0.317647 21:1 22:1 23:-0.23622 24:0.552941 25:-0.278431 26:0.984314 27:-0.184314 28:1 29:1 30:0.811765 31:0.6 32:0.152941 33:-0.631373 34:-0.529412 35:1 36:1 37:1 38:1 39:1 40:0.960474 41:0.960784 42:1 43:1 44:1 45:1 46:1 47:1 48:1 49:1 
0 6.999805572343876e-11 1.904752489507615e-11 0 4.507506745911797e-11 0 0 8.962215186188395e-11 0 1:1 2:1 3:1 4:1 5:1 6:1 7:1 8:1 9:1 10:1 11:0.913043 12:0.647059 13:0.0281124 14:1 15:1 16:1 17:0.466667 18:-0.537255 19:0.992157 20:-0.215686 21:0.583333 22:1 23:0.330709 24:-0.592157 25:-0.0117647 26:0.890196 27:-0.482353 28:0.867925 29:1 30:-0.278431 31:0.905882 32:-0.498039 33:-0.607843 34:0.419608 35:1 36:1 37:-0.2827 38:1 39:0.960784 40:0.920949 41:1 42:1 43:1 44:0.45 45:1 46:1 47:1 48:1 49:1 
1.338899420016581e-10 4.6831326539341e-11 1.666300766389699e-11 8.625861265338212e-11 0 0 0 4.499755058270632e-11 1.502367017421582e-10 1:1 2:1 3:1 4:1 5:1 6:1 7:1 8:1 9:1 10:1 11:0.810277 12:0.0823529 13:0.558233 14:1 15:1 16:1 17:0.34902 18:-0.717647 19:0.905882 20:-0.333333 21:1 22:1 23:0.181102 24:-0.356863 25:-0.184314 26:0.780392 27:-0.333333 28:1 29:1 30:-0.435294 31:0.929412 32:-0.411765 33:-0.576471 34:0.6 35:1 36:1 37:-0.42616 38:1 39:0.882353 40:0.881423 41:1 42:1 43:1 44:0.633333 45:1 46:1 47:1 48:1 49:1 
0 1.566877669159217e-09 5.083250668326533e-10 1.98673445691493e-09 1.488752183393488e-11 0 1.366992501867734e-09 5.14483485313228e-10 3.797246272901798e-10 1:1 2:1 3:1 4:1 5:1 6:1 7:1 8:1 9:1 10:1 11:1 12:1 13:1 14:0.973684 15:1 16:1 17:0.960784 18:0.145098 19:0.576471 20:0.482353 21:0.740741 22:1 23:0.889764 24:-0.0588235 25:-0.0901961 26:0.419608 27:0.631373 28:0.764151 29:1 30:0.223529 31:0.87451 32:0.0666667 33:0.0823529 34:1 35:0.704433 36:1 37:0.485232 38:1 39:1 40:1 41:1 42:0.887324 43:1 44:1 45:1 46:1 47:1 48:1 49:1 
3.755993512899806e-10 2.564052162783593e-09 8.574619535502755e-10 3.64098404189012e-09 7.480727207386748e-10 1.097257693396217e-09 9.606701003159414e-10 2.443620131254778e-09 7.161127019270253e-10 1:1 2:1 3:1 4:1 5:1 6:1 7:1 8:1 9:1 10:1 11:0.494071 12:0.929412 13:1 14:1 15:1 16:1 17:0.819608 18:0.333333 19:1 20:0.992157 21:0.916667 22:1 23:1 24:0.294118 25:0.498039 26:1 27:0.560784 28:0.90566 29:1 30:1 31:0.74902 32:0.207843 33:0.686275 34:0.733333 35:1 36:1 37:1 38:0.976285 39:0.607843 40:1 41:1 42:1 43:1 44:1 45:0.93007 46:0.985714 47:1 48:1 49:1 
0 0 0 0 0 1.548587851698848e-09 0 0 0 1:1 2:1 3:1 4:1 5:1 6:1 7:1 8:1 9:1 10:1 11:1 12:1 13:0.88755 14:1 15:1 16:0.873518 17:0.741176 18:1 19:1 20:-0.403922 21:1 22:1 23:-0.244094 24:-0.301961 25:0.341176 26:0.87451 27:-0.00392157 28:1 29:1 30:0.247059 31:0.984314 32:0.0980392 33:-0.411765 34:0.803922 35:1 36:1 37:0.991561 38:1 39:1 40:1 41:1 42:1 43:1 44:1 45:1 46:1 47:1 48:1 49:1 
2.268052677970091e-10 0 0 0 0 0 4.464857336961914e-10 0 5.930541524911928e-10 1:1 2:1 3:1 4:1 5:1 6:1 7:1 8:1 9:1 10:1 11:1 12:1 13:0.477912 14:0.815789 15:1 16:0.857708 17:0.34902 18:-0.027451 19:0.223529 20:0.537255 21:0.435185 22:1 23:-0.149606 24:0.6 25:0.0431373 26:0.866667 27:0.0823529 28:0.896226 29:1 30:-0.0823529 31:0.756863 32:0.152941 33:0.380392 34:0.278431 35:1 36:1 37:0.932489 38:1 39:0.686275 40:0.588933 41:1 42:1 43:1 44:1 45:1 46:1 47:1 48:1 49:1 
2.883703176623387e-10 2.485823929613726e-10 6.31104300213561e-11 1.709219237914244e-10 2.905023476349301e-10 0 3.656784267886704e-10 2.445517560262045e-10 5.022206184990267e-11 1:1 2:1 3:1 4:1 5:1 6:1 7:1 8:1 9:1 10:1 11:0.976285 12:0.811765 13:-0.261044 14:1 15:1 16:1 17:0.592157 18:-0.560784 19:0.960784 20:-0.333333 21:1 22:1 23:0.149606 24:-0.466667 25:-0.215686 26:0.756863 27:-0.372549 28:1 29:1 30:-0.435294 31:0.937255 32:-0.356863 33:-0.607843 34:0.717647 35:1 36:1 37:-0.122363 38:1 39:0.905882 40:0.98419 41:1 42:1 43:1 44:1 45:1 46:1 47:1 48:1 49:1 
5.363073592662879e-10 4.839998205554549e-10 2.168340728513847e-10 4.005450222562976e-10 6.850974053233245e-10 5.47899112327941e-10 4.818979166141599e-10 4.820424358927991e-10 5.275871136326944e-10 1:1 2:1 3:1 4:1 5:1 6:1 7:1 8:1 9:0.6 10:0.549407 11:1 12:0.537255 13:0.84739 14:1 15:1 16:-0.628458 17:-0.466667 18:0.756863 19:0.764706 20:0.027451 21:1 22:1 23:-0.314961 24:0.913725 25:-0.184314 26:1 27:-0.356863 28:1 29:1 30:-0.0666667 31:1 32:0.168627 33:0.545098 34:-0.294118 35:1 36:1 37:0.85654 38:1 39:0.976471 40:-0.083004 41:-0.458824 42:1 43:1 44:1 45:1 46:1 47:0.987097 48:0.694656 49:1 
0 0 1.539643732896705e-10 2.699126540004957e-11 0 0 0 0 3.907571011916886e-10 1:1 2:1 3:1 4:1 5:1 6:1 7:1 8:1 9:1 10:1 11:1 12:0.419608 13:1 14:1 15:1 16:1 17:0.992157 18:0.0588235 19:-0.294118 20:0.984314 21:1 22:1 23:1 24:0.0509804 25:-0.231373 26:-0.176471 27:0.992157 28:1 29:1 30:0.976471 31:-0.0588235 32:0.317647 33:0.592157 34:1 35:1 36:1 37:0.983122 38:0.185771 39:1 40:1 41:1 42:1 43:1 44:1 45:0.65035 46:1 47:1 48:1 49:1 
5.342417569467492e-10 5.37353469548986e-10 2.094022999391088e-10 5.388540500376829e-10 7.106919094421546e-10 9.686240638777578e-10 1.164590236191973e-09 5.21871543454801e-10 1.391177383306906e-09 1:1 2:1 3:1 4:1 5:1 6:1 7:1 8:1 9:1 10:1 11:1 12:1 13:1 14:1 15:1 16:0.0671937 17:-0.152941 18:0.0745098 19:0.0823529 20:0.34902 21:1 22:1 23:-0.322835 24:0.0901961 25:-0.796078 26:0.239216 27:-0.72549 28:1 29:1 30:0.490196 31:0.890196 32:-0.898039 33:-0.160784 34:-0.717647 35:1 36:1 37:1 38:1 39:0.301961 40:0.146245 41:0.85098 42:1 43:1 44:1 45:1 46:1 47:1 48:1 49:1 
3.967078799336596e-10 3.876783704537031e-10 1.626077916824238e-10 2.707813667039084e-10 5.24926406133792e-10 6.571042506039892e-10 3.456714757839609e-10 3.878082768928964e-10 4.165482296651621e-10 1:1 2:1 3:1 4:1 5:1 6:1 7:1 8:1 9:0.293617 10:0.0355731 11:0.193676 12:0.929412 13:0.959839 14:1 15:1 16:-0.217391 17:0.960784 18:-0.0352941 19:0.945098 20:-0.223529 21:0.990741 22:1 23:-0.299213 24:0.960784 25:-0.105882 26:1 27:0.0509804 28:0.773585 29:1 30:-0.0431373 31:0.992157 32:-0.388235 33:0.945098 34:-0.0196078 35:0.704433 36:1 37:1 38:1 39:0.529412 40:-0.359684 41:0.137255 42:1 43:1 44:1 45:1 46:1 47:1 48:1 49:1 
1.05888428171768e-10 1.077954071282868e-10 2.896254478558617e-11 3.372031663415016e-11 1.223548608671192e-10 0 8.460113180402792e-11 1.216682606690755e-10 0 1:1 2:1 3:1 4:1 5:1 6:1 7:1 8:1 9:1 10:0.478261 11:0.628458 12:0.952941 13:0.935743 14:1 15:1 16:0.699605 17:-0.498039 18:-0.301961 19:0.952941 20:-0.160784 21:0.759259 22:1 23:-0.354331 24:0.607843 25:-0.247059 26:0.858824 27:-0.0117647 28:0.509434 29:1 30:-0.34902 31:1 32:0.654902 33:-0.317647 34:-0.592157 35:0.980296 36:1 37:-0.434599 38:1 39:1 40:0.802372 41:0.866667 42:1 43:1 44:0.316667 45:1 46:1 47:1 48:1 49:1 
4.221153236406878e-10 0 0 0 2.879738504320272e-10 4.604396967805211e-10 0 4.644280673915101e-11 2.558611485496019e-10 1:1 2:1 3:1 4:1 5:1 6:1 7:1 8:1 9:1 10:1 11:1 12:0.513725 13:0.0120482 14:0.868421 15:1 16:1 17:1 18:1 19:0.87451 20:-0.113725 21:0.611111 22:1 23:0.653543 24:-0.0431373 25:0.160784 26:0.427451 27:0.0117647 28:1 29:1 30:-0.168627 31:0.72549 32:0.584314 33:0.286275 34:0.960784 35:1 36:1 37:-0.400844 38:0.865613 39:1 40:1 41:1 42:1 43:1 44:0.766667 45:0.986014 46:1 47:1 48:1 49:1 
2.143079081926102e-10 1.137530163331597e-09 6.310007521804553e-11 1.247190022322439e-09 3.819305104187813e-10 2.204464950199665e-10 4.49656677296796e-10 3.371857438593544e-10 8.931183147412014e-10 1:1 2:1 3:1 4:1 5:1 6:1 7:1 8:1 9:0.957447 10:0.976285 11:1 12:1 13:1 14:1 15:1 16:0.272727 17:-0.168627 18:-0.0509804 19:0.686275 20:1 21:1 22:1 23:0.0551181 24:0.992157 25:0.435294 26:0.529412 27:1 28:1 29:1 30:0.584314 31:1 32:0.129412 33:0.364706 34:0.576471 35:0.625616 36:1 37:1 38:1 39:0.992157 40:0.343874 41:0.231373 42:0.830986 43:1 44:1 45:1 46:1 47:1 48:1 49:1 
1.079762597904262e-09 3.022416252446732e-10 5.065599471124657e-10 8.323050484447172e-10 1.101679947222345e-09 3.376220578459656e-09 1.394493442656922e-10 6.216874193408107e-10 9.837995125528694e-10 1:1 2:1 3:1 4:1 5:1 6:1 7:1 8:1 9:1 10:1 11:1 12:1 13:0.62249 14:0.907895 15:1 16:0.675889 17:0.678431 18:1 19:0.72549 20:-0.168627 21:0.481481 22:1 23:-0.283465 24:-0.490196 25:0.639216 26:0.898039 27:0.137255 28:0.660377 29:1 30:-0.333333 31:-0.152941 32:-0.152941 33:-0.113725 34:0.443137 35:1 36:1 37:0.831224 38:0.644269 39:1 40:1 41:1 42:1 43:1 44:1 45:1 46:1 47:1 48:1 49:1 
4.045378604171836e-11 0 0 0 0 0 0 0 0 1:1 2:1 3:1 4:1 5:1 6:1 7:1 8:1 9:1 10:1 11:0.992095 12:0.709804 13:0.261044 14:1 15:1 16:1 17:0.87451 18:-0.396078 19:0.87451 20:-0.34902 21:1 22:1 23:0.96063 24:0.184314 25:0.113725 26:0.678431 27:0.113725 28:1 29:1 30:0.427451 31:0.47451 32:0.0196078 33:0.0823529 34:0.929412 35:1 36:1 37:-0.156118 38:0.841897 39:1 40:1 41:1 42:1 43:1 44:0.683333 45:1 46:1 47:1 48:1 49:1 
0 0 0 0 2.938706787568654e-10 0 6.792194340081189e-10 0 1.099694448466889e-10 1:1 2:1 3:1 4:1 5:1 6:1 7:1 8:1 9:1 10:1 11:1 12:0.262745 13:0.7751 14:1 15:1 16:1 17:0.654902 18:-0.0666667 19:0.223529 20:0.0196078 21:1 22:1 23:0.338583 24:0.372549 25:-0.0431373 26:0.137255 27:-0.0666667 28:1 29:1 30:-0.333333 31:0.960784 32:-0.192157 33:-0.207843 34:0.631373 35:1 36:0.685185 37:-0.147679 38:1 39:0.968627 40:0.928854 41:1 42:1 43:0.698113 44:0.716667 45:1 46:1 47:1 48:1 49:1 
0 3.11545205793359e-09 0 0 0 0 0 0 0 1:1 2:1 3:1 4:1 5:1 6:1 7:1 8:1 9:1 10:1 11:1 12:0.47451 13:1 14:1 15:1 16:1 17:0.976471 18:0.129412 19:-0.231373 20:0.756863 21:1 22:1 23:1 24:0.0823529 25:-0.0901961 26:-0.207843 27:0.662745 28:1 29:1 30:1 31:0.0588235 32:0.137255 33:0.247059 34:1 35:1 36:1 37:0.687764 38:0.359684 39:1 40:1 41:1 42:1 43:1 44:0.766667 45:0.958042 46:1 47:1 48:1 49:1 
0 3.20996993624544e-11 0 5.641489441737599e-11 4.392912603660801e-10 2.457696307052703e-10 8.489479898283944e-10 2.993413055992128e-11 1.305884329334425e-09 1:1 2:1 3:1 4:1 5:1 6:1 7:1 8:1 9:1 10:1 11:1 12:0.811765 13:0.325301 14:1 15:1 16:0.810277 17:0.466667 18:-0.00392157 19:0.0588235 20:0.341176 21:1 22:0.792208 23:-0.637795 24:0.466667 25:-0.411765 26:0.811765 27:0.215686 28:1 29:1 30:0.0588235 31:0.843137 32:-0.286275 33:-0.00392157 34:0.215686 35:1 36:1 37:0.628692 38:0.905138 39:0.905882 40:0.778656 41:1 42:1 43:1 44:1 45:1 46:1 47:1 48:1 49:1 
6.125638731083529e-10 2.564456693567055e-10 8.668021254376131e-11 2.978834202263783e-10 8.512597917320634e-10 5.299357988503644e-10 6.300966848979855e-10 3.32960964162994e-10 7.290144579641691e-10 1:1 2:1 3:1 4:1 5:1 6:1 7:1 8:1 9:1 10:1 11:1 12:0.364706 13:0.751004 14:1 15:1 16:1 17:0.466667 18:0.835294 19:-0.388235 20:-0.176471 21:1 22:1 23:0.401575 24:0.0117647 25:0.458824 26:-0.0666667 27:-0.027451 28:1 29:1 30:-0.0117647 31:0.576471 32:0.184314 33:-0.333333 34:0.701961 35:1 36:1 37:-0.181435 38:0.889328 39:1 40:1 41:1 42:1 43:1 44:-0.1 45:1 46:1 47:1 48:1 49:1 
4.997858846593117e-10 5.519582744824107e-10 5.52383197282062e-10 3.143681840191969e-10 1.93179517842608e-09 4.07124458322795e-10 1.155439460518896e-09 4.501378498199603e-10 1.198698967386877e-09 1:1 2:1 3:1 4:1 5:1 6:1 7:1 8:1 9:1 10:1 11:1 12:0.254902 13:0.943775 14:1 15:1 16:1 17:1 18:0.905882 19:-0.223529 20:0.403922 21:1 22:1 23:0.984252 24:0.247059 25:0.294118 26:-0.254902 27:0.835294 28:1 29:1 30:0.247059 31:0.717647 32:0.458824 33:0.72549 34:1 35:1 36:1 37:0.257384 38:1 39:1 40:1 41:1 42:1 43:1 44:0.533333 45:1 46:1 47:1 48:1 49:1 
0 8.467233679372378e-10 2.585108427329659e-10 2.921702423107305e-10 6.539836823079174e-11 0 0 0 0 1:1 2:1 3:1 4:1 5:1 6:1 7:1 8:1 9:1 10:1 11:0.992095 12:0.317647 13:0.975904 14:1 15:1 16:1 17:0.945098 18:0.45098 19:0.286275 20:0.443137 21:1 22:1 23:0.811024 24:0.223529 25:0.458824 26:0.231373 27:0.701961 28:1 29:1 30:0.560784 31:0.45098 32:0.388235 33:0.513725 34:1 35:1 36:1 37:0.485232 38:0.992095 39:1 40:1 41:1 42:1 43:1 44:0.666667 45:1 46:1 47:1 48:1 49:1 
7.15849466606448e-10 5.33254985361072e-10 3.844777674586531e-10 5.518037381123771e-10 9.52102102969697e-10 1.317674114710534e-09 6.913302263798159e-10 6.788825814073799e-10 5.488424800108074e-10 1:1 2:1 3:1 4:1 5:0.532258 6:0.405941 7:1 8:1 9:1 10:1 11:1 12:0.976471 13:0.140562 14:1 15:1 16:1 17:1 18:1 19:1 20:0.152941 21:1 22:0.792208 23:-0.188976 24:0.223529 25:0.984314 26:1 27:0.215686 28:1 29:0.83871 30:0.32549 31:0.756863 32:0.027451 33:0.694118 34:0.341176 35:1 36:1 37:1 38:1 39:0.74902 40:0.15415 41:0.984314 42:1 43:1 44:1 45:1 46:1 47:1 48:1 49:1 
6.409361629627173e-10 5.863591725657254e-10 2.243934273240002e-10 4.695293582578313e-10 7.567763529761978e-10 6.533821641094588e-10 6.033492719933518e-10 5.57102098253158e-10 7.957933267769821e-10 1:1 2:1 3:1 4:1 5:1 6:1 7:1 8:1 9:1 10:1 11:1 12:0.435294 13:0.646586 14:1 15:1 16:0.873518 17:-0.662745 18:0.215686 19:0.341176 20:-0.34902 21:1 22:1 23:0.464567 24:-0.662745 25:-0.568627 26:0.247059 27:-0.756863 28:1 29:1 30:1 31:-0.819608 32:0.623529 33:-0.286275 34:-0.0980392 35:1 36:1 37:1 38:-0.928854 39:1 40:1 41:1 42:1 43:1 44:1 45:-0.0629371 46:1 47:1 48:1 49:1 
1.009511205124232e-09 5.290575888246874e-10 2.010386382877763e-10 4.502779378837045e-10 7.108005427818211e-10 5.621908498132666e-10 8.606585865419777e-10 4.954672139226024e-10 1.455666810271946e-09 1:1 2:1 3:1 4:1 5:1 6:1 7:1 8:1 9:1 10:1 11:0.968379 12:0.333333 13:0.7751 14:1 15:1 16:1 17:0.419608 18:-0.152941 19:-0.45098 20:-0.545098 21:0.935185 22:1 23:0.173228 24:-0.87451 25:-0.670588 26:0.0117647 27:-0.882353 28:0.584906 29:1 30:-0.309804 31:0.121569 32:0.0980392 33:-0.0980392 34:0.670588 35:1 36:1 37:-0.459916 38:0.225296 39:1 40:0.976285 41:1 42:1 43:1 44:0.283333 45:0.902098 46:1 47:1 48:1 49:1 
4.107840620859357e-10 3.809561786951896e-10 1.60125929257366e-10 3.371300142180193e-10 4.778262174740912e-10 4.477974962486199e-10 4.187316916377389e-10 3.547669947900738e-10 1.043177621487931e-09 1:1 2:1 3:1 4:1 5:1 6:1 7:1 8:1 9:1 10:0.968379 11:0.810277 12:0.615686 13:0.807229 14:1 15:1 16:1 17:0.0588235 18:-0.537255 19:-0.152941 20:-0.372549 21:0.981481 22:1 23:0.511811 24:-0.741176 25:-0.780392 26:-0.317647 27:-0.960784 28:0.726415 29:1 30:0.270588 31:-0.364706 32:0.72549 33:0.333333 34:0.584314 35:1 36:1 37:-0.0632911 38:-0.083004 39:1 40:1 41:1 42:1 43:1 44:0.1 45:0.482517 46:1 47:1 48:1 49:1 
1.114374474575944e-09 6.493400561218316e-10 2.772895593224307e-10 6.500912582646461e-10 8.52169245490448e-10 8.261250359983524e-10 7.540510461701652e-10 8.137581801834737e-10 7.182555591916696e-10 1:1 2:1 3:1 4:1 5:1 6:1 7:1 8:1 9:0.982979 10:0.114625 11:0.233202 12:0.945098 13:0.895582 14:1 15:1 16:0.881423 17:-0.764706 18:0.278431 19:0.87451 20:-0.215686 21:1 22:1 23:0.456693 24:-0.458824 25:0.662745 26:1 27:-0.223529 28:1 29:1 30:0.976471 31:0.356863 32:0.521569 33:0.772549 34:0.0117647 35:1 36:1 37:1 38:0.905138 39:-0.0509804 40:-0.438735 41:0.811765 42:1 43:1 44:1 45:1 46:0.628571 47:0.56129 48:1 49:1 
2.997299852570822e-10 0 0 0 6.298731931556927e-10 1.616735918234743e-10 1.978217752091461e-09 0 1.767515323519717e-09 1:1 2:1 3:1 4:1 5:1 6:1 7:1 8:1 9:1 10:1 11:1 12:0.898039 13:1 14:1 15:0.974194 16:0.517787 17:0.498039 18:0.552941 19:0.160784 20:0.176471 21:1 22:0.584416 23:0.133858 24:0.552941 25:0.0117647 26:0.968627 27:-0.254902 28:1 29:0.903226 30:0.301961 31:1 32:0.0823529 33:-0.129412 34:0.521569 35:1 36:1 37:1 38:1 39:1 40:1 41:1 42:1 43:1 44:1 45:1 46:1 47:1 48:1 49:1 
0 0 0 0 0 0 0 0 3.466652610835822e-10 1:1 2:1 3:1 4:1 5:1 6:1 7:1 8:1 9:1 10:1 11:1 12:0.254902 13:0.84739 14:1 15:1 16:1 17:0.623529 18:0.145098 19:0.372549 20:0.0745098 21:1 22:1 23:0.976378 24:-0.513725 25:-0.584314 26:-0.584314 27:0.396078 28:1 29:1 30:0.984314 31:-0.262745 32:0.913725 33:0.945098 34:1 35:1 36:1 37:0.974684 38:-0.462451 39:1 40:1 41:1 42:1 43:1 44:1 45:0.72028 46:1 47:1 48:1 49:1 
0 0 8.359564979197903e-11 3.731737804898918e-10 0 1.123001011035391e-11 0 2.089909791602745e-10 6.590762015103012e-10 1:1 2:1 3:1 4:1 5:1 6:1 7:1 8:1 9:1 10:1 11:1 12:0.317647 13:0.783133 14:1 15:1 16:1 17:0.498039 18:0.47451 19:0.654902 20:-0.0431373 21:1 22:1 23:0.905512 24:-0.662745 25:-0.764706 26:-0.458824 27:0.129412 28:1 29:1 30:0.968627 31:-0.301961 32:0.615686 33:0.560784 34:1 35:1 36:1 37:0.966245 38:-0.264822 39:1 40:1 41:1 42:1 43:1 44:1 45:0.552448 46:1 47:1 48:1 49:1 
0 0 0 0 0 4.638490636540296e-10 0 0 0 1:1 2:1 3:1 4:1 5:1 6:1 7:1 8:1 9:1 10:1 11:1 12:1 13:0.88755 14:0.907895 15:1 16:0.407115 17:0.0352941 18:0.32549 19:1 20:0.741176 21:0.425926 22:1 23:0.527559 24:0.576471 25:0.270588 26:0.764706 27:0.6 28:0.566038 29:1 30:0.631373 31:0.607843 32:0.960784 33:0.152941 34:0.145098 35:0.990148 36:1 37:0.738397 38:0.604743 39:1 40:1 41:1 42:1 43:1 44:1 45:0.748252 46:1 47:1 48:1 49:1 
4.97199150091828e-10 0 0 3.374320370018568e-10 0 9.101432421366118e-10 0 0 1.762121058520404e-09 1:1 2:1 3:1 4:1 5:1 6:1 7:1 8:1 9:1 10:1 11:1 12:1 13:0.574297 14:1 15:1 16:0.968379 17:0.113725 18:-0.254902 19:0.254902 20:-0.0588235 21:0.87963 22:1 23:-0.015748 24:0.482353 25:-0.00392157 26:0.639216 27:-0.0509804 28:0.669811 29:1 30:-0.34902 31:0.396078 32:0.121569 33:-0.207843 34:0.388235 35:1 36:1 37:0.687764 38:0.628458 39:1 40:1 41:1 42:1 43:1 44:1 45:1 46:1 47:1 48:1 49:1 
4.137834804825019e-10 7.343362637986131e-10 8.734335771320301e-11 4.132852680568699e-10 4.00413573105472e-10 3.087029366733907e-10 3.57809317391751e-10 4.290703032225099e-10 8.809401135851759e-10 1:1 2:1 3:1 4:1 5:1 6:1 7:1 8:1 9:1 10:1 11:1 12:0.443137 13:0.879518 14:1 15:1 16:1 17:0.72549 18:-0.396078 19:0.560784 20:-0.137255 21:1 22:1 23:1 24:-0.388235 25:-0.592157 26:-0.278431 27:-0.231373 28:1 29:1 30:1 31:-0.0666667 32:0.341176 33:0.796078 34:1 35:1 36:1 37:1 38:-0.16996 39:0.411765 40:1 41:1 42:1 43:1 44:1 45:-0.146853 46:0.757143 47:1 48:1 49:1 
6.022539960502646e-10 4.78545960159931e-10 1.993997260671459e-10 3.792211234260514e-10 6.715021704086867e-10 5.831330000514333e-10 5.677784187521797e-10 4.70245686351439e-10 5.713576122340536e-10 1:1 2:1 3:1 4:1 5:1 6:1 7:1 8:1 9:1 10:1 11:1 12:0.317647 13:0.694779 14:1 15:1 16:1 17:0.0196078 18:0.00392157 19:0.835294 20:-0.592157 21:1 22:1 23:0.874016 24:-0.631373 25:-0.372549 26:0.160784 27:-0.772549 28:1 29:1 30:0.952941 31:-0.772549 32:0.976471 33:0.654902 34:0.835294 35:1 36:1 37:0.864979 38:-0.70751 39:1 40:1 41:1 42:1 43:1 44:0.95 45:-0.356643 46:1 47:1 48:1 49:1 
1.786655786488801e-10 2.842393267329618e-10 5.175409134462917e-11 1.863382219882373e-10 2.31657254877586e-10 3.888538895463746e-10 7.229086622819006e-11 2.672162009483381e-10 2.640089181365257e-10 1:1 2:1 3:1 4:1 5:0.983871 6:0.980198 7:1 8:1 9:1 10:1 11:1 12:0.560784 13:-0.156627 14:1 15:1 16:0.636364 17:0.952941 18:0.662745 19:0.843137 20:-0.435294 21:1 22:1 23:-0.80315 24:-0.34902 25:-0.623529 26:0.945098 27:-0.301961 28:1 29:1 30:-0.286275 31:1 32:-0.105882 33:-0.223529 34:0.231373 35:1 36:1 37:0.485232 38:1 39:0.882353 40:0.509881 41:0.992157 42:1 43:1 44:1 45:1 46:1 47:1 48:1 49:1 
6.227938705965621e-10 3.394442843827095e-10 1.923164065080557e-10 4.162465425960382e-10 6.468969031486299e-10 7.789489652837272e-10 5.094699881592108e-10 4.325848217650445e-10 7.712194188510253e-10 1:1 2:1 3:1 4:1 5:1 6:1 7:1 8:1 9:1 10:1 11:0.992095 12:-0.0823529 13:0.7751 14:1 15:1 16:1 17:1 18:-0.129412 19:-0.0588235 20:0.0196078 21:1 22:1 23:1 24:0.309804 25:-0.913725 26:-0.152941 27:0.568627 28:1 29:1 30:1 31:-0.647059 32:0.647059 33:0.811765 34:1 35:1 36:1 37:0.755274 38:-0.422925 39:1 40:1 41:1 42:1 43:1 44:0.883333 45:0.846154 46:1 47:1 48:1 49:1 
4.550903798665599e-10 8.877561750125087e-10 3.676508826714215e-10 5.946979253119382e-10 6.106251314796462e-10 2.631105089008813e-10 9.481291312032309e-10 4.111732015053507e-10 3.82400093671892e-10 1:1 2:1 3:1 4:1 5:1 6:1 7:1 8:1 9:1 10:1 11:1 12:1 13:1 14:1 15:1 16:1 17:0.341176 18:-0.223529 19:-0.00392157 20:1 21:1 22:1 23:0.023622 24:-0.160784 25:0.968627 26:-0.254902 27:0.529412 28:0.773585 29:1 30:0.87451 31:-0.0352941 32:1 33:0.247059 34:0.152941 35:1 36:1 37:1 38:0.747036 39:1 40:1 41:1 42:1 43:1 44:1 45:1 46:1 47:1 48:1 49:1 
5.061905107466333e-10 4.370329639950498e-10 1.818603437240729e-10 5.349652378450504e-10 5.445596409773277e-10 8.458741712063733e-10 3.990143579812996e-10 4.455257003547407e-10 5.163935589193651e-10 1:1 2:1 3:1 4:1 5:1 6:1 7:1 8:1 9:1 10:0.715415 11:0.70751 12:1 13:0.7751 14:1 15:1 16:0.0197628 17:-0.858824 18:-0.105882 19:1 20:-0.278431 21:0.990741 22:1 23:-0.251969 24:-0.733333 25:0.545098 26:1 27:-0.207843 28:0.584906 29:1 30:0.152941 31:-0.733333 32:-0.0823529 33:0.701961 34:-0.34902 35:0.694581 36:1 37:1 38:0.952569 39:0.0823529 40:-0.320158 41:0.560784 42:1 43:1 44:1 45:1 46:1 47:1 48:1 49:1 
6.290115881520546e-10 6.230734931371717e-10 2.304926408379489e-10 5.684757594405686e-10 7.61419058025541e-10 6.402542826170647e-10 5.958564176926412e-10 6.406575113640121e-10 5.564942910407091e-10 1:1 2:1 3:1 4:1 5:1 6:1 7:1 8:1 9:0.889362 10:0.0592885 11:0.233202 12:0.968627 13:1 14:1 15:1 16:0.683794 17:-0.694118 18:-0.623529 19:0.905882 20:0.858824 21:-0.0833333 22:1 23:0.417323 24:-0.0588235 25:-0.105882 26:1 27:0.231373 28:0.160377 29:1 30:0.341176 31:0.129412 32:0.317647 33:-0.45098 34:-0.560784 35:0.891626 36:1 37:0.0295359 38:0.644269 39:1 40:0.818182 41:0.929412 42:1 43:1 44:0.05 45:0.972028 46:1 47:1 48:1 49:1 
5.952819781475213e-10 8.152301320975553e-10 2.703693469111254e-10 7.963675298511024e-10 8.3989775470545e-10 7.822276305349743e-10 6.817271230222295e-10 8.276218344524929e-10 8.643055679971234e-10 1:1 2:1 3:1 4:1 5:1 6:1 7:1 8:1 9:1 10:0.177866 11:0.0592885 12:0.976471 13:1 14:1 15:1 16:0.936759 17:-0.403922 18:0.152941 19:0.521569 20:1 21:1 22:1 23:1 24:0.247059 25:-0.152941 26:0.0901961 27:0.913725 28:0.358491 29:1 30:1 31:-0.254902 32:1 33:0.0196078 34:-0.317647 35:0.704433 36:1 37:1 38:0.0988142 39:1 40:1 41:1 42:1 43:1 44:1 45:0.258741 46:1 47:1 48:1 49:1 
2.33301003313027e-10 2.612661969100468e-10 2.311466342586583e-10 5.581703963708959e-10 2.976091086883157e-10 6.747523274448507e-10 1.743555885430181e-10 3.352822888969011e-10 6.416190786271761e-10 1:1 2:1 3:1 4:1 5:1 6:1 7:1 8:1 9:1 10:0.715415 11:1 12:1 13:1 14:1 15:1 16:0.335968 17:-0.913725 18:0.482353 19:0.976471 20:0.113725 21:0.768519 22:1 23:0.535433 24:-0.0823529 25:-0.47451 26:0.741176 27:0.215686 28:0.160377 29:1 30:0.560784 31:0.0901961 32:0.733333 33:-0.647059 34:-0.294118 35:0.842365 36:1 37:0.443038 38:0.889328 39:1 40:1 41:1 42:1 43:1 44:1 45:1 46:1 47:1 48:1 49:1 
7.699555304849568e-10 7.105078563935704e-10 2.742453703289099e-10 5.714169178423264e-10 8.932607669872229e-10 8.477713757881589e-10 7.254034864314077e-10 6.773220567314754e-10 6.482635599044898e-10 1:1 2:1 3:1 4:1 5:1 6:1 7:1 8:1 9:0.421277 10:-0.0118577 11:-0.16996 12:0.968627 13:0.742972 14:1 15:1 16:-0.865613 17:0.152941 18:-0.631373 19:0.905882 20:-0.443137 21:1 22:1 23:-0.511811 24:0.247059 25:0.372549 26:1 27:-0.380392 28:1 29:1 30:-0.443137 31:0.435294 32:-0.286275 33:0.968627 34:-0.662745 35:1 36:1 37:1 38:1 39:0.372549 40:-0.70751 41:-0.380392 42:1 43:1 44:1 45:1 46:1 47:1 48:1 49:1 
1.352376887244146e-10 1.275070169511515e-10 1.347334144335041e-10 3.603399323812874e-11 8.268310357962182e-11 3.655998420526425e-11 8.612199353034119e-11 2.348602125563721e-10 5.190769416047063e-10 1:1 2:1 3:1 4:1 5:1 6:1 7:1 8:1 9:1 10:1 11:0.351779 12:0.992157 13:0.975904 14:1 15:1 16:1 17:0.458824 18:-0.913725 19:0.85098 20:0.168627 21:0.962963 22:1 23:1 24:-0.388235 25:0.137255 26:0.223529 27:-0.419608 28:0.971698 29:1 30:0.929412 31:-0.247059 32:0.960784 33:-0.0352941 34:0.529412 35:1 36:1 37:0.949367 38:0.0592885 39:1 40:1 41:1 42:1 43:1 44:0.983333 45:0.608392 46:1 47:1 48:1 49:1 
0 1.157006929509189e-10 0 0 1.023743667433615e-10 0 3.091913893511008e-10 0 3.699763106412108e-10 1:1 2:1 3:1 4:1 5:1 6:1 7:1 8:1 9:1 10:1 11:1 12:0.827451 13:1 14:1 15:1 16:1 17:0.945098 18:0.231373 19:-0.137255 20:0.709804 21:1 22:1 23:1 24:0.388235 25:0.0352941 26:-0.32549 27:0.85098 28:1 29:1 30:1 31:0.239216 32:0.764706 33:0.521569 34:1 35:1 36:1 37:1 38:0.217391 39:1 40:1 41:1 42:1 43:1 44:1 45:0.258741 46:1 47:1 48:1 49:1 
0 3.63284555274617e-10 0 0 0 0 0 0 0 1:1 2:1 3:1 4:1 5:1 6:1 7:1 8:1 9:1 10:1 11:1 12:0.647059 13:0.751004 14:1 15:1 16:1 17:0.890196 18:0.223529 19:0.0196078 20:0.160784 21:1 22:1 23:1 24:-0.0117647 25:-0.0117647 26:-0.160784 27:0.858824 28:1 29:1 30:0.772549 31:0.411765 32:0.584314 33:0.592157 34:1 35:1 36:1 37:0.130802 38:0.905138 39:1 40:1 41:1 42:1 43:1 44:0.216667 45:1 46:1 47:1 48:1 49:1 
3.173588825006181e-10 4.255858692533209e-10 1.936302646076826e-10 0 1.908062449606553e-10 7.995609192613163e-10 4.190310487362011e-10 3.065274609568625e-10 6.823273703061036e-10 1:1 2:1 3:1 4:1 5:1 6:1 7:1 8:1 9:1 10:1 11:1 12:1 13:1 14:0.960526 15:1 16:1 17:0.882353 18:0.239216 19:0.866667 20:0.913725 21:0.0555556 22:1 23:0.346457 24:-0.505882 25:-0.129412 26:0.32549 27:-0.121569 28:0.735849 29:1 30:0.0431373 31:0.843137 32:0.709804 33:-0.231373 34:0.545098 35:1 36:1 37:0.493671 38:0.778656 39:1 40:1 41:1 42:1 43:1 44:1 45:1 46:1 47:1 48:1 49:1 
0 0 0 0 0 5.345987086436922e-10 0 0 1.444088877770758e-11 1:1 2:1 3:1 4:1 5:1 6:1 7:1 8:1 9:1 10:1 11:1 12:1 13:0.935743 14:1 15:1 16:0.715415 17:-0.34902 18:0.607843 19:1 20:0.254902 21:0.527778 22:1 23:0.0944882 24:0.231373 25:-0.529412 26:0.717647 27:-0.341176 28:0.933962 29:1 30:-0.270588 31:0.905882 32:0.733333 33:-0.270588 34:0.419608 35:1 36:1 37:0.907173 38:1 39:1 40:1 41:1 42:1 43:1 44:1 45:1 46:1 47:1 48:1 49:1 
3.12411403289728e-10 1.236666399914241e-09 1.785085361687768e-10 4.733589375415755e-10 4.163176914857656e-10 3.815701768395567e-10 6.664001917775402e-10 4.602594701118902e-10 1.051863467817961e-09 1:1 2:1 3:1 4:1 5:1 6:1 7:1 8:1 9:1 10:1 11:0.944664 12:0.780392 13:1 14:1 15:1 16:1 17:0.388235 18:-0.0666667 19:-0.168627 20:0.576471 21:1 22:1 23:1 24:0.458824 25:-0.270588 26:-0.403922 27:0.0431373 28:1 29:1 30:0.568627 31:0.427451 32:0.223529 33:-0.137255 34:0.74902 35:1 36:1 37:0.0886076 38:0.889328 39:1 40:1 41:1 42:1 43:1 44:-0.183333 45:0.986014 46:1 47:1 48:1 49:1 
0 2.887887950130145e-10 0 3.59583302324192e-10 0 0 0 3.331916304224639e-10 0 1:1 2:1 3:1 4:1 5:1 6:1 7:1 8:1 9:1 10:0.549407 11:0.715415 12:1 13:1 14:1 15:1 16:0.920949 17:-0.105882 18:-0.176471 19:1 20:0.960784 21:0.768519 22:1 23:0.480315 24:0.584314 25:0.0352941 26:0.952941 27:-0.254902 28:0.415094 29:1 30:0.0823529 31:0.952941 32:-0.0117647 33:-0.254902 34:0.529412 35:1 36:1 37:0.797468 38:1 39:1 40:1 41:1 42:1 43:1 44:1 45:1 46:1 47:1 48:1 49:1 
0 0 3.277796138590146e-11 0 0 0 0 0 9.091098421162847e-11 1:1 2:1 3:1 4:1 5:1 6:1 7:1 8:1 9:1 10:1 11:1 12:1 13:1 14:1 15:1 16:0.857708 17:0.0509804 18:0.929412 19:0.803922 20:-0.254902 21:1 22:1 23:0.0314961 24:-0.192157 25:-0.466667 26:0.647059 27:-0.380392 28:1 29:1 30:-0.576471 31:0.984314 32:0.631373 33:-0.443137 34:0.317647 35:1 36:1 37:0.561181 38:1 39:1 40:1 41:1 42:1 43:1 44:1 45:1 46:1 47:1 48:1 49:1 
0 0 1.9479951008768e-11 0 0 0 0 0 0 1:1 2:1 3:1 4:1 5:1 6:1 7:1 8:1 9:1 10:1 11:1 12:1 13:1 14:1 15:1 16:0.936759 17:0.262745 18:0.396078 19:1 20:0.341176 21:1 22:1 23:-0.220472 24:0.466667 25:0.231373 26:0.152941 27:-0.0745098 28:1 29:1 30:-0.192157 31:1 32:1 33:0.341176 34:-0.137255 35:1 36:1 37:0.670886 38:1 39:1 40:1 41:1 42:1 43:1 44:1 45:1 46:1 47:1 48:1 49:1 
2.669285398473128e-10 2.720452865531411e-10 1.037315733283823e-10 2.445889506658951e-10 3.139403734962541e-10 4.935516294352661e-10 3.013923599002399e-10 2.349300566240536e-10 5.016016918033935e-10 1:1 2:1 3:1 4:1 5:1 6:1 7:1 8:1 9:0.982979 10:0.596838 11:0.0434783 12:0.537255 13:1 14:1 15:1 16:-0.177866 17:-0.537255 18:-0.372549 19:0.945098 20:0.435294 21:0.805556 22:1 23:0.015748 24:-0.137255 25:-0.152941 26:1 27:0.176471 28:0.518868 29:1 30:0.0980392 31:0.521569 32:-0.482353 33:0.811765 34:-0.105882 35:0.783251 36:1 37:0.594937 38:0.70751 39:0.356863 40:-0.644269 41:-0.262745 42:0.985915 43:1 44:1 45:1 46:1 47:0.987097 48:0.923664 49:1 
6.697061345601281e-11 4.685519838050772e-10 2.611850975282728e-11 3.536757439483095e-10 1.076396985256171e-09 1.994853126730167e-10 3.625080566418542e-10 4.312095723126989e-10 3.391829102998172e-10 1:1 2:1 3:1 4:1 5:1 6:1 7:1 8:1 9:1 10:1 11:1 12:0.247059 13:0.686747 14:1 15:1 16:1 17:0.482353 18:0.764706 19:-0.262745 20:0.34902 21:1 22:1 23:0.826772 24:-0.372549 25:0.247059 26:-0.262745 27:0.639216 28:1 29:1 30:0.866667 31:0.364706 32:-0.0352941 33:-0.0588235 34:0.992157 35:1 36:1 37:0.383966 38:0.770751 39:1 40:1 41:1 42:1 43:1 44:0.683333 45:1 46:1 47:1 48:1 49:1 
0 0 0 0 0 5.943890563772872e-10 0 0 0 1:1 2:1 3:1 4:1 5:1 6:1 7:1 8:1 9:1 10:1 11:1 12:1 13:1 14:1 15:1 16:0.462451 17:0.0745098 18:-0.129412 19:0.913725 20:0.521569 21:0.990741 22:1 23:0.543307 24:0.32549 25:0.160784 26:1 27:0.231373 28:0.603774 29:1 30:0.513725 31:0.545098 32:0.537255 33:0.0980392 34:-0.152941 35:0.980296 36:1 37:0.814346 38:0.849802 39:1 40:0.660079 41:0.937255 42:1 43:1 44:1 45:1 46:1 47:1 48:1 49:1 
2.831183848471902e-10 5.273981724349558e-10 0 4.088317936136493e-10 3.208522473155202e-10 2.931912427499665e-10 2.893985608103294e-10 4.658118095170225e-10 5.475085785776767e-10 1:1 2:1 3:1 4:1 5:1 6:1 7:1 8:1 9:1 10:0.897233 11:0.335968 12:1 13:1 14:1 15:1 16:1 17:0.2 18:-0.129412 19:0.717647 20:-0.0901961 21:1 22:1 23:1 24:0.231373 25:-0.0980392 26:0.984314 27:-0.207843 28:1 29:1 30:0.992157 31:0.00392157 32:0.160784 33:-0.0666667 34:0.568627 35:1 36:1 37:0.949367 38:0.0355731 39:1 40:1 41:1 42:1 43:1 44:0.916667 45:0.0909091 46:1 47:1 48:1 49:1 
8.222645568597101e-10 6.77926722637051e-10 2.668082448201935e-10 5.740363037136884e-10 8.644961506215804e-10 7.172446326304785e-10 7.093148010207206e-10 6.429525700465156e-10 8.579542534303796e-10 1:1 2:1 3:1 4:1 5:1 6:1 7:1 8:1 9:1 10:0.454545 11:0.027668 12:0.615686 13:0.919679 14:1 15:1 16:0.6917 17:-0.607843 18:-0.45098 19:0.0352941 20:-0.560784 21:0.916667 22:1 23:0.708661 24:-0.639216 25:-0.32549 26:0.529412 27:-0.247059 28:0.556604 29:1 30:0.811765 31:-0.670588 32:0.615686 33:-0.521569 34:-0.466667 35:0.891626 36:1 37:0.881857 38:-0.699605 39:1 40:1 41:1 42:1 43:1 44:0.983333 45:0.020979 46:1 47:1 48:1 49:1 
0 0 0 3.808514322154616e-10 0 0 0 0 0 1:1 2:1 3:1 4:1 5:1 6:1 7:1 8:1 9:1 10:0.762846 11:0.683794 12:1 13:1 14:1 15:1 16:0.193676 17:-0.231373 18:0.0823529 19:1 20:0.631373 21:0.990741 22:1 23:-0.133858 24:0.388235 25:0.6 26:1 27:0.341176 28:0.518868 29:1 30:0.333333 31:0.937255 32:0.0117647 33:-0.129412 34:-0.262745 35:0.940887 36:1 37:1 38:1 39:1 40:0.897233 41:1 42:1 43:1 44:1 45:1 46:1 47:1 48:1 49:1 
0 0 0 0 8.183769919615846e-11 2.60504612509972e-11 0 1.647089725855216e-10 0 1:1 2:1 3:1 4:1 5:1 6:1 7:1 8:1 9:1 10:1 11:1 12:0.372549 13:0.638554 14:1 15:1 16:1 17:0.984314 18:0.639216 19:0.992157 20:0.129412 21:1 22:1 23:1 24:-0.0509804 25:0.47451 26:0.192157 27:0.278431 28:1 29:1 30:1 31:0.0117647 32:1 33:1 34:1 35:1 36:1 37:0.864979 38:0.201581 39:1 40:1 41:1 42:1 43:1 44:0.833333 45:0.79021 46:1 47:1 48:1 49:1 
1.007337575146139e-10 0 0 0 0 0 0 0 0 1:1 2:1 3:1 4:1 5:1 6:1 7:1 8:1 9:1 10:1 11:1 12:0.733333 13:0.62249 14:1 15:1 16:1 17:0.427451 18:0.027451 19:0.662745 20:-0.2 21:1 22:1 23:1 24:-0.0666667 25:0.992157 26:0.286275 27:-0.0196078 28:1 29:1 30:0.960784 31:-0.0980392 32:1 33:1 34:1 35:1 36:1 37:0.485232 38:0.264822 39:1 40:1 41:1 42:1 43:1 44:0.05 45:0.776224 46:1 47:1 48:1 49:1 
4.969710318375583e-10 3.415988907485881e-10 1.872644230834391e-11 4.889100512789735e-10 1.026908570443031e-09 4.682849386101843e-10 7.739792783676415e-10 3.569423080635009e-10 1.089268207002809e-09 1:1 2:1 3:1 4:1 5:1 6:1 7:1 8:1 9:1 10:1 11:0.802372 12:0.992157 13:1 14:1 15:1 16:0.905138 17:0.843137 18:0.294118 19:0.32549 20:0.521569 21:0.796296 22:1 23:0.149606 24:0.74902 25:1 26:-0.176471 27:0.027451 28:0.349057 29:1 30:0.0509804 31:0.835294 32:1 33:0.843137 34:0.662745 35:0.990148 36:1 37:0.451477 38:0.604743 39:1 40:1 41:1 42:1 43:1 44:0.916667 45:0.482517 46:1 47:1 48:1 49:1 
0 0 3.009451339718857e-11 0 0 5.302727732143582e-11 0 0 0 1:1 2:1 3:1 4:1 5:1 6:1 7:1 8:1 9:1 10:1 11:1 12:0.584314 13:0.293173 14:1 15:1 16:1 17:0.717647 18:0.803922 19:1 20:0.160784 21:1 22:1 23:1 24:-0.113725 25:0.309804 26:0.129412 27:0.309804 28:1 29:1 30:0.811765 31:0.160784 32:1 33:0.992157 34:1 35:1 36:1 37:0.265823 38:0.683794 39:1 40:1 41:1 42:1 43:1 44:0.55 45:0.93007 46:1 47:1 48:1 49:1 
1.490274928002262e-10 0 0 1.06248524542118e-11 1.92019743839965e-11 0 3.958559049542403e-12 0 8.371236967500731e-12 1:1 2:1 3:1 4:1 5:1 6:1 7:1 8:1 9:1 10:1 11:1 12:0.976471 13:0.373494 14:1 15:1 16:1 17:0.380392 18:-0.027451 19:0.733333 20:0.129412 21:0.611111 22:1 23:0.992126 24:-0.145098 25:0.976471 26:0.192157 27:-0.239216 28:0.650943 29:1 30:0.576471 31:0.231373 32:1 33:1 34:0.960784 35:1 36:1 37:-0.164557 38:0.889328 39:1 40:1 41:1 42:1 43:1 44:-0.216667 45:1 46:1 47:1 48:1 49:1 
0 0 0 0 0 0 0 0 5.032494714356629e-10 1:1 2:1 3:1 4:1 5:1 6:1 7:1 8:1 9:1 10:1 11:1 12:1 13:1 14:1 15:1 16:0.43083 17:-0.32549 18:0.623529 19:0.631373 20:0.396078 21:1 22:1 23:-0.267717 24:0.890196 25:-0.262745 26:0.898039 27:-0.0588235 28:1 29:1 30:0.380392 31:1 32:0.74902 33:-0.207843 34:-0.262745 35:1 36:1 37:1 38:1 39:1 40:0.660079 41:0.576471 42:1 43:1 44:1 45:1 46:1 47:1 48:1 49:1 
4.35330264530823e-10 3.04851397101711e-10 1.233096833445392e-10 2.846977188854002e-10 5.29778708154637e-10 3.840655046179976e-10 3.372768363999033e-10 2.318622389457006e-10 7.252894430966581e-10 1:1 2:1 3:1 4:1 5:1 6:1 7:1 8:1 9:1 10:1 11:1 12:0.968627 13:0.911647 14:1 15:1 16:0.826087 17:-0.380392 18:-0.929412 19:0.74902 20:-0.490196 21:0.833333 22:1 23:-0.165354 24:-0.0509804 25:0.0588235 26:-0.105882 27:-0.490196 28:0.471698 29:1 30:0.113725 31:0.168627 32:0.882353 33:-0.105882 34:-0.129412 35:0.960591 36:1 37:0.907173 38:0.027668 39:1 40:1 41:1 42:1 43:1 44:1 45:1 46:1 47:1 48:1 49:1 
3.44845354765547e-10 2.838229250351543e-10 1.358698690145216e-10 3.645875923913238e-10 2.419779511484379e-10 2.320420845119919e-10 1.979409883545215e-10 6.682301824357508e-10 3.481488601531799e-10 1:1 2:1 3:1 4:1 5:1 6:1 7:1 8:1 9:1 10:1 11:1 12:1 13:0.662651 14:0.802632 15:1 16:1 17:0.317647 18:-0.380392 19:0.427451 20:0.027451 21:0.037037 22:1 23:1 24:-0.32549 25:0.623529 26:0.152941 27:0.027451 28:0.839623 29:1 30:0.756863 31:-0.811765 32:1 33:1 34:1 35:1 36:1 37:0.105485 38:0.0592885 39:1 40:1 41:1 42:1 43:1 44:0.883333 45:0.874126 46:1 47:1 48:1 49:1 
6.487366693195933e-10 6.044934717923515e-10 2.29815955981335e-10 4.955035615380317e-10 7.670849418730806e-10 6.378153357675191e-10 6.159114208235929e-10 5.765324151329307e-10 6.321528972306812e-10 1:1 2:1 3:1 4:1 5:1 6:1 7:1 8:1 9:1 10:0.913043 11:0.177866 12:1 13:-0.24498 14:1 15:1 16:0.422925 17:-0.615686 18:-0.819608 19:1 20:-0.741176 21:1 22:1 23:-0.708661 24:0.709804 25:-0.380392 26:0.952941 27:-0.701961 28:1 29:1 30:-0.984314 31:0.913725 32:-0.380392 33:-0.137255 34:-0.0980392 35:1 36:1 37:-0.0886076 38:1 39:0.34902 40:0.304348 41:0.952941 42:1 43:1 44:1 45:1 46:1 47:1 48:1 49:1 
3.205927077306959e-10 4.000904852044429e-10 1.313078027209103e-10 3.041362884889246e-10 4.560539068856848e-10 8.672547369651432e-10 3.29722701492942e-10 3.75050927681005e-10 2.489341743575709e-10 1:1 2:1 3:1 4:1 5:1 6:1 7:1 8:1 9:1 10:1 11:0.976285 12:0.00392157 13:0.670683 14:1 15:1 16:0.889328 17:0.529412 18:0.764706 19:0.6 20:-0.87451 21:1 22:1 23:-0.708661 24:-0.639216 25:0.00392157 26:0.835294 27:-0.733333 28:1 29:1 30:-0.913725 31:0.803922 32:-0.47451 33:-0.372549 34:0.0196078 35:1 36:1 37:0.71308 38:1 39:0.929412 40:0.304348 41:0.968627 42:1 43:1 44:1 45:1 46:1 47:1 48:1 49:1 
5.408073451108045e-10 3.012318778876839e-10 1.475898823489875e-10 3.024143326051278e-10 4.619326836058415e-10 1.122647880811237e-09 4.122321280766186e-10 2.796174580301082e-10 6.066242129134017e-10 1:1 2:1 3:1 4:1 5:1 6:1 7:1 8:1 9:1 10:1 11:1 12:0.835294 13:0.630522 14:1 15:1 16:0.794466 17:0.184314 18:0.129412 19:0.388235 20:-0.576471 21:1 22:1 23:-0.637795 24:-0.490196 25:-0.584314 26:0.513725 27:-0.858824 28:1 29:1 30:-0.952941 31:0.701961 32:-0.364706 33:-0.717647 34:0.113725 35:1 36:1 37:0.907173 38:0.992095 39:0.976471 40:0.944664 41:0.984314 42:1 43:1 44:1 45:1 46:1 47:1 48:1 49:1 
3.047068333991133e-10 3.197274885768368e-10 1.376764539495368e-10 2.693580517948694e-10 4.012674640663798e-10 2.865763099274494e-10 5.790100692370201e-10 3.074960925264761e-10 2.29011891542025e-10 1:1 2:1 3:1 4:1 5:1 6:1 7:1 8:1 9:1 10:1 11:0.841897 12:0.811765 13:0.518072 14:1 15:1 16:1 17:0.121569 18:-0.819608 19:0.403922 20:-0.913725 21:1 22:1 23:0.275591 24:-0.72549 25:-0.317647 26:-0.0666667 27:-0.72549 28:1 29:1 30:-0.380392 31:0.435294 32:0.811765 33:-0.223529 34:0.435294 35:1 36:1 37:-0.991561 38:0.841897 39:1 40:1 41:1 42:1 43:1 44:0.333333 45:1 46:1 47:1 48:1 49:1 
3.009081699662356e-10 2.803616670107091e-10 3.046344433765577e-11 2.014402581236476e-10 3.178932563951132e-10 4.044608897037334e-10 2.357277179170366e-10 2.508685825929192e-10 5.334114672705665e-10 1:1 2:1 3:1 4:1 5:1 6:1 7:1 8:1 9:1 10:1 11:1 12:1 13:0.301205 14:1 15:1 16:0.992095 17:0.427451 18:-0.0117647 19:1 20:-0.866667 21:1 22:1 23:0.606299 24:-0.670588 25:-0.529412 26:0.113725 27:-0.568627 28:1 29:1 30:-0.027451 31:0.0980392 32:0.74902 33:-0.32549 34:0.505882 35:1 36:1 37:-0.85654 38:0.652174 39:1 40:1 41:1 42:1 43:1 44:1 45:1 46:1 47:1 48:1 49:1 
4.435007752617413e-10 3.741309979329223e-10 1.609877905783724e-10 3.067834539906193e-10 5.178686129531792e-10 4.685079427475439e-10 3.661072843466895e-10 3.574069813861279e-10 5.177424197398225e-10 1:1 2:1 3:1 4:1 5:1 6:1 7:1 8:1 9:1 10:1 11:1 12:0.301961 13:-0.220884 14:1 15:1 16:0.636364 17:-0.443137 18:-0.027451 19:0.694118 20:-0.945098 21:1 22:1 23:-0.165354 24:-0.87451 25:-0.184314 26:0.607843 27:-0.85098 28:1 29:1 30:-0.796078 31:0.34902 32:-0.521569 33:-0.427451 34:-0.231373 35:1 36:1 37:-0.130802 38:0.98419 39:0.960784 40:0.675889 41:0.976471 42:1 43:1 44:1 45:1 46:1 47:1 48:1 49:1 
1.095993682787219e-10 2.197474313030905e-10 9.324311634254176e-11 1.421499340576687e-10 2.803588594780332e-10 2.497769826035059e-10 2.043471686293689e-10 2.066276058631165e-10 2.880697333935401e-10 1:1 2:1 3:1 4:1 5:1 6:1 7:1 8:1 9:1 10:0.881423 11:0.818182 12:0.937255 13:0.742972 14:1 15:1 16:0.462451 17:-0.803922 18:-0.152941 19:0.568627 20:-0.796078 21:1 22:1 23:-0.88189 24:-0.513725 25:-0.207843 26:0.819608 27:-0.968627 28:1 29:1 30:-0.796078 31:0.717647 32:-0.47451 33:0.317647 34:-0.639216 35:1 36:1 37:0.586498 38:0.920949 39:0.72549 40:0.083004 41:0.592157 42:1 43:1 44:1 45:1 46:1 47:1 48:1 49:1 
6.472454693161158e-10 7.310444406199959e-10 1.754231572299255e-10 6.476459126080127e-10 8.971378975081112e-10 6.637571515013699e-10 1.5839669798045e-09 5.396491883493692e-10 6.630254399427806e-10 1:1 2:1 3:1 4:1 5:1 6:1 7:1 8:1 9:1 10:1 11:0.968379 12:1 13:1 14:1 15:1 16:0.494071 17:-0.0588235 18:-0.537255 19:-0.380392 20:1 21:1 22:1 23:-0.346457 24:0.286275 25:0.984314 26:-0.607843 27:0.811765 28:0.830189 29:1 30:0.027451 31:0.87451 32:1 33:-0.356863 34:-0.0431373 35:0.714286 36:1 37:0.746835 38:0.897233 39:1 40:0.818182 41:0.584314 42:1 43:1 44:1 45:1 46:1 47:1 48:1 49:1 
5.308494695027982e-10 0 0 0 4.84025898431981e-11 0 8.237114553306718e-10 0 0 1:1 2:1 3:1 4:1 5:1 6:1 7:1 8:1 9:1 10:1 11:1 12:1 13:1 14:1 15:1 16:0.98419 17:0.529412 18:0.121569 19:0.309804 20:0.498039 21:0.583333 22:1 23:-0.00787402 24:0.788235 25:0.631373 26:0.372549 27:0.0666667 28:0.990566 29:1 30:0.0745098 31:1 32:0.45098 33:-0.160784 34:0.717647 35:1 36:1 37:0.257384 38:1 39:1 40:1 41:1 42:1 43:1 44:1 45:1 46:1 47:1 48:1 49:1 
0 0 0 0 0 1.763744450697879e-10 0 0 0 1:1 2:1 3:1 4:1 5:1 6:1 7:1 8:1 9:1 10:1 11:1 12:0.639216 13:0.349398 14:1 15:1 16:0.889328 17:0.0666667 18:0.560784 19:0.529412 20:-0.87451 21:1 22:1 23:-0.165354 24:-0.678431 25:-0.239216 26:0.717647 27:-0.678431 28:1 29:1 30:-0.843137 31:0.623529 32:-0.0431373 33:-0.607843 34:0.231373 35:1 36:1 37:0.535865 38:1 39:1 40:0.952569 41:0.992157 42:1 43:1 44:1 45:1 46:1 47:1 48:1 49:1 
9.560631346060409e-11 1.552501272455816e-10 8.078971973551558e-11 9.947930701699396e-11 1.353208640768819e-10 5.378001057635343e-11 0 1.295207851027246e-10 4.025472696408735e-11 1:1 2:1 3:1 4:1 5:1 6:1 7:1 8:1 9:1 10:0.889328 11:0.905138 12:0.623529 13:0.325301 14:1 15:1 16:0.652174 17:-0.396078 18:0.0823529 19:1 20:-0.615686 21:1 22:1 23:0.110236 24:0.87451 25:-0.262745 26:0.890196 27:-0.396078 28:1 29:1 30:-0.466667 31:1 32:0.145098 33:-0.152941 34:0.231373 35:1 36:1 37:-0.485232 38:1 39:1 40:1 41:1 42:1 43:1 44:0.583333 45:1 46:1 47:1 48:1 49:1 
1.689414612651948e-10 0 0 0 0 0 0 0 0 1:1 2:1 3:1 4:1 5:1 6:1 7:1 8:1 9:1 10:0.992095 11:0.13834 12:0.960784 13:0.445783 14:1 15:1 16:0.44664 17:-0.0745098 18:0.0431373 19:1 20:0.113725 21:1 22:1 23:-0.275591 24:0.678431 25:0.529412 26:1 27:0.168627 28:1 29:1 30:0.121569 31:0.882353 32:0.215686 33:0.945098 34:-0.027451 35:1 36:1 37:0.755274 38:1 39:0.584314 40:0.0592885 41:0.772549 42:1 43:1 44:1 45:1 46:1 47:1 48:1 49:1 
0 0 0 0 0 7.681654398815679e-10 0 0 0 1:1 2:1 3:1 4:1 5:1 6:1 7:1 8:1 9:1 10:1 11:1 12:1 13:1 14:1 15:1 16:0.588933 17:0.278431 18:0.678431 19:0.913725 20:0.192157 21:1 22:1 23:-0.322835 24:-0.027451 25:0.560784 26:0.984314 27:-0.396078 28:1 29:1 30:0.129412 31:0.733333 32:-0.0588235 33:0.0352941 34:-0.0666667 35:1 36:1 37:1 38:1 39:1 40:1 41:1 42:1 43:1 44:1 45:1 46:1 47:1 48:1 49:1 
1.094532040191958e-10 8.697191220278652e-11 3.937574378793687e-11 8.339290700233326e-11 1.452500808544223e-10 2.557347124397282e-11 9.039210569362821e-11 7.943648708054232e-11 2.970497965266854e-11 1:1 2:1 3:1 4:1 5:1 6:1 7:1 8:1 9:1 10:1 11:1 12:0.976471 13:0.550201 14:1 15:1 16:-0.288538 17:-0.678431 18:0.32549 19:0.537255 20:-0.670588 21:1 22:1 23:-0.559055 24:0.333333 25:0.192157 26:0.780392 27:-0.905882 28:1 29:1 30:-0.105882 31:0.835294 32:-0.254902 33:0.631373 34:-0.427451 35:1 36:1 37:0.139241 38:1 39:0.121569 40:-0.106719 41:0.576471 42:1 43:1 44:1 45:1 46:1 47:1 48:1 49:1 
5.109019354121595e-10 4.928323228446142e-10 2.062237045135601e-10 5.030442794938013e-10 6.297153489666177e-10 8.137713097763588e-10 4.542707339720541e-10 5.839657023976533e-10 3.96893883956727e-10 1:1 2:1 3:1 4:1 5:1 6:1 7:1 8:1 9:0.659574 10:1 11:1 12:0.827451 13:0.863454 14:1 15:1 16:-0.343874 17:-0.356863 18:0.992157 19:0.945098 20:-0.341176 21:0.805556 22:1 24:-0.301961 25:0.85098 26:1 27:0.388235 28:0.396226 29:1 30:0.0901961 31:0.411765 32:-0.427451 33:-0.145098 34:-0.32549 35:0.82266 36:1 37:0.746835 38:0.992095 39:0.615686 40:0.596838 41:0.992157 42:1 43:1 44:1 45:1 46:1 47:1 48:1 49:1 
6.891161225027741e-10 6.394541308795229e-10 2.76255423680086e-10 5.542026579928422e-10 9.077138969085496e-10 6.115767674899971e-10 1.117654520422973e-09 6.106466082240522e-10 9.16354473125875e-10 1:1 2:1 3:1 4:1 5:1 6:1 7:1 8:1 9:1 10:1 11:1 12:0.741176 13:0.84739 14:1 15:0.948387 16:0.0434783 17:-0.490196 18:0.294118 19:0.0352941 20:-0.0588235 21:1 22:0.623377 23:-0.0393701 24:0.905882 25:-0.0980392 26:0.223529 27:-0.427451 28:1 29:0.0322581 30:0.419608 31:1 32:-0.207843 33:-0.0745098 34:-0.262745 35:1 36:0.0925926 37:0.670886 38:1 39:0.788235 40:-0.0118577 41:0.756863 42:1 43:1 44:1 45:1 46:1 47:1 48:1 49:1 
0 0 0 0 0 0 4.012331495563514e-10 0 6.298209590875497e-11 1:1 2:1 3:1 4:1 5:1 6:1 7:1 8:1 9:1 10:1 11:1 12:0.882353 13:0.935743 14:1 15:1 16:0.407115 17:-0.309804 18:-0.145098 19:0.341176 20:0.0117647 21:1 22:0.857143 23:0.0629921 24:0.858824 25:-0.00392157 26:0.701961 27:-0.47451 28:1 29:0.532258 30:0.176471 31:1 32:0.0666667 33:0.121569 34:-0.396078 35:1 37:0.50211 38:1 39:0.952941 40:0.478261 41:0.827451 42:1 43:0.584906 44:0.9 45:1 46:1 47:1 48:1 49:1 
0 0 0 0 0 0 1.234120568801434e-09 0 1.639925430199141e-09 1:1 2:1 3:1 4:1 5:1 6:1 7:1 8:1 9:1 10:1 11:1 12:1 13:1 14:1 15:1 16:0.0118577 17:-0.0352941 18:-0.129412 19:0.32549 20:0.709804 21:1 22:1 23:0.0472441 24:0.764706 25:-0.0588235 26:0.905882 27:-0.160784 28:1 29:1 30:0.521569 31:0.694118 32:-0.027451 33:0.968627 34:-0.113725 35:1 36:1 37:1 38:1 39:0.662745 40:-0.185771 41:0.584314 42:1 43:1 44:1 45:1 46:1 47:1 48:1 49:1 
0 2.253898790355228e-11 5.453665954175893e-10 0 3.901911635894738e-10 2.520745865173338e-10 4.427680119056082e-10 3.197385685361976e-11 6.084379281928375e-10 1:1 2:1 3:1 4:1 5:1 6:1 7:1 8:1 9:1 10:1 11:1 12:1 13:1 14:1 15:1 16:1 17:0.615686 18:0.301961 19:0.607843 20:0.529412 21:1 22:1 23:0.0393701 24:-0.176471 25:0.498039 26:-0.105882 27:-0.372549 28:1 29:1 30:0.545098 31:0.443137 32:1 33:0.796078 34:-0.0509804 35:1 36:1 37:-0.0548523 38:1 39:1 40:1 41:1 42:1 43:1 44:0.933333 45:1 46:1 47:1 48:1 49:1 
7.782633602435149e-10 3.922898676501545e-10 1.564674075668199e-10 4.902188879955447e-10 5.495795892329558e-10 2.610060423595358e-10 3.964569868062039e-10 3.697770827079883e-10 3.539957003348466e-10 1:1 2:1 3:1 4:1 5:1 6:1 7:1 8:1 9:1 10:0.826087 11:0.533597 12:-0.145098 13:0.373494 14:1 15:1 16:0.857708 17:-0.662745 18:0.364706 19:0.984314 20:-0.356863 21:1 22:1 23:-0.448819 24:-0.686275 25:0.960784 26:1 27:-0.427451 28:1 29:1 30:-0.168627 31:0.0509804 32:-0.184314 33:-0.0823529 34:-0.662745 35:1 36:1 37:0.78903 38:1 39:0.576471 40:0.391304 41:0.843137 42:1 43:1 44:1 45:1 46:1 47:1 48:1 49:1 
9.59098377050861e-10 8.990167630176508e-10 3.502723316566736e-10 7.490901614933638e-10 1.143237397697056e-09 9.563760666735027e-10 9.594550287500843e-10 8.560728570102455e-10 9.737654935538343e-10 1:1 2:1 3:1 4:1 5:1 6:1 7:1 8:1 9:1 10:0.644269 11:0.494071 12:0.709804 13:1 14:1 15:1 16:0.288538 17:-0.952941 18:-0.992157 19:-0.623529 20:0.168627 21:1 22:1 23:-0.173228 24:0.341176 25:-0.0431373 26:-0.552941 27:-0.0588235 28:0.716981 29:1 30:-0.0823529 31:0.788235 32:1 33:-0.529412 34:-0.529412 35:0.743842 36:1 37:-0.206751 38:0.841897 39:1 40:0.731225 41:0.435294 42:1 43:1 44:-0.65 45:1 46:1 47:1 48:1 49:1 
0 5.440258155227959e-11 6.888240575606973e-12 0 2.756495576770362e-10 2.949015342235428e-10 5.466347373054788e-11 5.16095197791509e-11 0 1:1 2:1 3:1 4:1 5:1 6:1 7:1 8:1 9:1 10:1 11:1 12:1 13:-0.0763052 14:1 15:1 16:1 17:0.968627 18:0.960784 19:1 20:-0.2 21:1 22:1 23:0.0393701 24:-0.231373 25:0.0431373 26:0.678431 27:-0.137255 28:1 29:1 30:-0.0588235 31:0.992157 32:-0.380392 33:-0.458824 34:0.788235 35:1 36:1 37:0.620253 38:1 39:0.788235 40:0.865613 41:1 42:1 43:1 44:1 45:1 46:1 47:1 48:1 49:1 
0 0 0 0 0 4.053427138025762e-11 0 0 2.440564321422378e-10 1:1 2:1 3:1 4:1 5:1 6:1 7:1 8:1 9:1 10:1 11:1 12:0.741176 13:0.646586 14:1 15:1 16:0.786561 17:0.278431 18:0.286275 19:0.631373 20:-0.670588 21:1 22:1 23:0.173228 24:-0.254902 25:-0.278431 26:0.945098 27:-0.490196 28:1 29:1 30:0.403922 31:0.482353 32:0.662745 33:-0.270588 34:-0.278431 35:1 36:1 37:0.35865 38:0.470356 39:1 40:0.976285 41:0.984314 42:1 43:1 44:0.616667 45:0.412587 46:1 47:1 48:1 49:1 
5.082880687461171e-10 4.562439113845637e-10 1.77412974598387e-10 3.764070836917437e-10 5.869180093981729e-10 4.695742880905739e-10 5.324223463853935e-10 4.378994811842691e-10 4.650185086513949e-10 1:1 2:1 3:1 4:1 5:1 6:1 7:1 8:1 9:1 10:0.383399 11:0.391304 12:0.811765 13:0.614458 14:1 15:1 16:0.146245 17:-0.482353 18:-0.529412 19:0.631373 20:-0.717647 21:0.981481 22:1 23:-0.181102 24:0.74902 25:-0.231373 26:0.678431 27:-0.976471 28:0.726415 29:1 30:-0.333333 31:0.992157 32:0.552941 33:-0.239216 34:-0.843137 35:0.901478 36:1 37:-0.248945 38:1 39:0.984314 40:0.241107 41:0.552941 42:1 43:1 44:0.283333 45:1 46:1 47:1 48:1 49:1 
4.078515597055167e-10 4.413521413606517e-10 1.565910574090625e-10 4.38477252893146e-10 5.027718840604381e-10 5.361265785654859e-10 3.525838715333813e-10 4.312490907320028e-10 5.142947374880679e-10 1:1 2:1 3:1 4:1 5:1 6:1 7:1 8:1 9:0.838298 10:-0.288538 11:-0.185771 12:1 13:1 14:1 15:1 16:0.968379 17:-0.105882 18:-0.129412 19:1 20:0.87451 21:1 22:1 23:0.614173 24:0.396078 25:0.0901961 26:0.921569 27:0.521569 28:0.59434 29:1 30:0.270588 31:0.788235 32:0.490196 33:0.47451 34:0.419608 35:0.428571 36:1 37:0.367089 38:0.920949 39:0.984314 40:-0.114625 41:-0.2 42:0.929577 43:1 44:1 45:1 46:1 47:1 48:1 49:1 
6.516391840311684e-11 1.103053344252198e-10 0 0 0 0 0 0 0 1:1 2:1 3:1 4:1 5:1 6:1 7:1 8:1 9:1 10:1 11:0.770751 12:0.992157 13:0.927711 14:1 15:1 16:1 17:0.254902 18:-0.2 19:0.129412 20:0.560784 21:1 22:1 23:0.527559 24:-0.317647 25:1 26:-0.2 27:-0.121569 28:1 29:1 30:0.898039 31:-0.0352941 32:1 33:0.137255 34:0.458824 35:1 36:1 37:0.417722 38:0.699605 39:1 40:1 41:1 42:1 43:1 44:0.266667 45:1 46:1 47:1 48:1 49:1 
0 0 0 0 0 0 8.884691679262392e-13 0 0 1:1 2:1 3:1 4:1 5:1 6:1 7:1 8:1 9:1 10:0.952569 11:0.928854 12:0.254902 13:0.060241 14:1 15:1 16:0.359684 17:-0.733333 18:0.113725 19:0.717647 20:-0.317647 21:1 22:1 23:-0.464567 24:0.482353 25:0.0352941 26:1 27:-0.270588 28:1 29:1 30:-0.0980392 31:0.984314 32:-0.34902 33:0.521569 34:-0.239216 35:1 36:1 37:-0.0801688 38:1 39:0.654902 40:0.0513834 41:0.85098 42:1 43:1 44:1 45:1 46:1 47:1 48:1 49:1 
1.261672482756523e-10 1.830193126746059e-10 1.09573282285098e-10 8.606187988483028e-10 2.1413196923649e-10 1.120600165962048e-09 1.757755305075673e-10 2.791986059148637e-10 2.453125002314207e-10 1:1 2:1 3:1 4:1 5:1 6:1 7:1 8:1 9:1 10:1 11:1 12:0.984314 13:0.959839 14:1 15:1 16:0.549407 17:-0.254902 18:1 19:0.992157 20:0.215686 21:1 22:1 23:-0.503937 24:-0.309804 25:0.435294 26:0.984314 27:-0.45098 28:1 29:1 30:0.788235 31:0.858824 32:-0.380392 33:-0.694118 34:-0.113725 35:1 36:1 37:1 38:1 39:1 40:0.889328 41:1 42:1 43:1 44:1 45:1 46:1 47:1 48:1 49:1 
0 0 0 0 0 4.266423590161034e-10 1.944614109772712e-10 0 1.657526526061155e-10 1:1 2:1 3:1 4:1 5:1 6:1 7:1 8:1 9:1 10:1 11:1 12:0.560784 13:0.0441767 14:1 15:1 16:1 17:1 18:0.796078 19:1 20:-0.333333 21:1 22:1 23:0.299213 24:-0.278431 25:-0.513725 26:0.6 27:-0.294118 28:1 29:1 30:-0.372549 31:0.796078 32:-0.0352941 33:-0.356863 34:0.796078 35:1 36:1 37:-0.07173 38:1 39:1 40:1 41:1 42:1 43:1 44:1 45:1 46:1 47:1 48:1 49:1 
0 0 0 0 0 5.159934850967457e-10 0 0 0 1:1 2:1 3:1 4:1 5:1 6:1 7:1 8:1 9:1 10:1 11:1 12:1 13:1 14:1 15:1 16:1 17:0.85098 18:0.560784 19:0.968627 20:0.278431 21:1 22:1 23:-0.19685 24:0.254902 25:-0.129412 26:0.819608 27:-0.129412 28:1 29:1 30:0.00392157 31:1 32:0.85098 33:0.0196078 34:0.317647 35:1 36:1 37:0.974684 38:1 39:1 40:1 41:1 42:1 43:1 44:1 45:1 46:1 47:1 48:1 49:1 
1.449529718789329e-10 4.992277835309928e-10 0 0 2.210671880193405e-10 8.094109942918184e-11 1.271163750370929e-10 4.167396235084831e-11 0 1:1 2:1 3:1 4:1 5:1 6:1 7:1 8:1 9:1 10:1 11:1 12:0.952941 13:0.662651 14:1 15:1 16:1 17:0.937255 18:-0.215686 19:0.6 20:0.0823529 21:1 22:1 23:1 24:0.45098 25:0.72549 26:-0.364706 27:0.819608 28:1 29:1 30:1 31:0.0980392 32:1 33:1 34:1 35:1 36:1 37:0.983122 38:0.083004 39:1 40:1 41:1 42:1 43:1 44:0.866667 45:0.384615 46:1 47:1 48:1 49:1 
5.617795280257986e-11 5.6954900925366e-11 3.992249443681738e-11 4.360116561367641e-11 1.335467924977093e-10 3.339106958555948e-10 0 8.834294615486767e-11 6.651577740678714e-11 1:1 2:1 3:1 4:1 5:1 6:1 7:1 8:1 9:1 10:1 11:1 12:0.623529 13:0.0923695 14:1 15:1 16:1 17:0.231373 18:-0.490196 19:0.992157 20:-0.32549 21:1 22:1 23:0.291339 24:0.121569 25:-0.286275 26:0.74902 27:-0.231373 28:1 29:1 30:-0.686275 31:0.780392 32:0.0666667 33:-0.654902 34:0.764706 35:1 36:1 37:-0.637131 38:0.992095 39:0.952941 40:0.913043 41:1 42:1 43:1 44:0.9 45:1 46:1 47:1 48:1 49:1 
1.43251206691576e-10 1.423606446611141e-10 0 4.598188556534583e-11 1.731126701665421e-10 0 2.600999275490007e-10 1.315504425462052e-10 2.64936052465032e-10 1:1 2:1 3:1 4:1 5:1 6:1 7:1 8:1 9:1 10:1 11:1 12:0.521569 13:0.638554 14:1 15:1 16:0.928854 17:-0.184314 18:0.576471 19:0.34902 20:-0.45098 21:1 22:1 23:-0.19685 24:0.270588 25:-0.435294 26:0.764706 27:-0.47451 28:1 29:1 30:-0.623529 31:0.984314 32:0.803922 33:-0.317647 34:0.121569 35:1 36:1 37:-0.291139 38:1 39:1 40:1 41:1 42:1 43:1 44:1 45:1 46:1 47:1 48:1 49:1 
7.51805455991518e-10 7.129824249989559e-10 2.967150670888358e-10 6.640868091768511e-10 9.793049374388745e-10 1.163049779674255e-09 7.183136596493951e-10 6.78136419715561e-10 7.956074087882705e-10 1:1 2:1 3:1 4:1 5:1 6:1 7:1 8:1 9:0.957447 10:0.73913 11:1 12:0.74902 13:-0.00401606 14:1 15:1 16:0.12253 17:-0.992157 18:0.301961 19:0.388235 20:-0.560784 21:1 22:1 23:-0.307087 24:-0.992157 25:0.294118 26:0.741176 27:-0.921569 28:1 29:1 30:-0.545098 31:-0.576471 32:-0.592157 33:-0.0352941 34:-0.772549 35:1 36:1 37:0.957806 38:0.920949 39:0.709804 40:-0.438735 41:0.247059 42:1 43:1 44:1 45:1 46:1 47:1 48:1 49:1 
2.900893972551754e-10 4.960047807073523e-10 1.812668249691634e-10 6.224894571820115e-10 4.341039332577625e-10 6.613212726126209e-10 2.70924879213571e-10 4.597146858245964e-10 4.68398344249924e-10 1:1 2:1 3:1 4:1 5:1 6:1 7:1 8:1 9:1 10:1 11:1 12:1 13:1 14:1 15:1 16:0.422925 17:-0.694118 18:-0.529412 19:1 20:0.811765 21:0.666667 22:1 23:0.80315 24:-0.254902 25:-0.490196 26:0.764706 27:0.278431 28:-0.0943396 29:1 30:0.568627 31:-0.254902 32:0.772549 33:-0.105882 34:-0.0666667 35:0.655172 36:1 37:0.924051 38:0.525692 39:1 40:1 41:1 42:1 43:1 44:1 45:1 46:1 47:1 48:1 49:1 
5.386044810293125e-10 4.432392424919356e-10 1.830433243032141e-10 5.980577771069253e-10 5.683576262666179e-10 1.273580796274338e-09 3.480633146877954e-10 4.67787965297987e-10 5.464627586405803e-10 1:1 2:1 3:1 4:1 5:1 6:1 7:1 8:1 9:0.991489 10:0.462451 11:0.715415 12:1 13:-0.00401606 14:-0.0394737 15:1 16:0.407115 17:-0.152941 18:0.105882 19:1 20:0.396078 21:0.101852 22:1 23:0.0629921 24:0.254902 25:0.32549 26:1 27:-0.145098 28:0.707547 29:1 30:0.0196078 31:0.137255 32:-0.0745098 33:0.0980392 34:-0.254902 35:0.990148 36:1 37:0.105485 38:0.683794 39:0.45098 40:0.44664 41:0.976471 42:1 43:1 44:1 45:1 46:1 47:1 48:1 49:1 
4.136857470285696e-10 2.244206388224513e-10 1.02020590053142e-10 3.022312513904011e-10 2.78374063034975e-10 8.461757314823519e-10 4.257024414180001e-10 2.430410215126914e-10 4.90150862702553e-10 1:1 2:1 3:1 4:1 5:1 6:1 7:1 8:1 9:1 10:0.992095 11:0.976285 12:0.992157 13:1 14:1 15:1 16:0.857708 17:-0.47451 18:-0.905882 19:0.498039 20:-0.294118 21:0.953704 22:1 23:-0.023622 24:-0.607843 25:-0.403922 26:0.984314 27:-0.686275 28:0.59434 29:1 30:-0.396078 31:0.380392 32:-0.701961 33:-0.317647 34:-0.521569 35:0.931034 36:1 37:0.831224 38:1 39:0.72549 40:0.0750988 41:0.858824 42:1 43:1 44:1 45:1 46:1 47:1 48:1 49:1 
0 0 0 7.963514898058635e-11 0 1.032531602473637e-10 0 0 1.246893312960176e-11 1:1 2:1 3:1 4:1 5:1 6:1 7:1 8:1 9:1 10:0.73913 11:0.209486 12:1 13:-0.0682731 14:1 15:1 16:0.359684 17:-0.0823529 18:-0.341176 19:1 20:-0.231373 21:0.935185 22:1 23:-0.188976 24:0.976471 25:-0.113725 26:1 27:-0.294118 28:0.981132 29:1 30:-0.192157 31:0.772549 32:-0.301961 33:0.0823529 34:-0.34902 35:1 36:1 37:-0.0464135 38:0.715415 39:0.819608 40:0.604743 41:0.929412 42:1 43:1 44:0.616667 45:0.972028 46:1 47:1 48:1 49:1 
6.940330197305431e-10 5.846360486669135e-10 2.952644868473873e-10 4.882263747318344e-10 1.007826984856009e-09 1.311076603366037e-09 8.990470619678383e-10 5.912367857659933e-10 1.212175099537867e-09 1:1 2:1 3:1 4:1 5:1 6:1 7:1 8:1 9:0.608511 10:0.541502 11:1 12:1 13:1 14:1 15:1 16:-0.185771 17:0.0823529 18:-0.309804 19:0.176471 20:0.866667 21:1 22:1 23:-0.244094 24:0.639216 25:0.294118 26:0.341176 27:0.278431 28:1 29:1 30:0.443137 31:0.835294 32:0.984314 33:-0.247059 34:0.121569 35:1 36:1 37:1 38:1 39:1 40:0.604743 41:-0.592157 42:1 43:1 44:1 45:1 46:1 47:1 48:0.740458 49:1 
0 8.77100878002958e-12 0 3.170761068865243e-10 0 0 0 1.922016777106814e-10 0 1:1 2:1 3:1 4:1 5:1 6:1 7:1 8:1 9:1 10:1 11:0.913043 12:0.803922 13:0.566265 14:1 15:1 16:1 17:0.47451 18:-0.160784 19:0.607843 20:0.411765 21:1 22:1 23:1 24:0.0980392 25:0.364706 26:0.513725 27:0.654902 28:1 29:1 30:1 31:0.0901961 32:0.482353 33:0.0509804 34:0.960784 35:1 36:1 37:1 38:0.12253 39:1 40:1 41:1 42:1 43:1 44:1 45:0.706294 46:1 47:1 48:1 49:1 
0 0 0 1.13627542570172e-10 0 2.48166281985522e-10 0 0 7.934546286937302e-10 1:1 2:1 3:1 4:1 5:1 6:1 7:1 8:1 9:1 10:1 11:1 12:1 13:0.124498 14:0.986842 15:1 16:1 17:0.231373 18:0.0901961 19:1 20:-0.372549 21:0.990741 22:1 23:0.551181 24:-0.0980392 25:-0.372549 26:-0.160784 27:0.129412 28:1 29:1 30:0.0823529 31:0.372549 32:0.976471 33:0.6 34:0.968627 35:1 36:1 37:0.299578 38:0.241107 39:1 40:1 41:1 42:1 43:1 44:0.983333 45:0.622378 46:1 47:1 48:1 49:1 
0 0 0 0 0 2.738953759522718e-11 0 0 0 1:1 2:1 3:1 4:1 5:1 6:1 7:1 8:1 9:1 10:1 11:1 12:0.607843 13:0.534137 14:1 15:1 16:1 17:0.466667 18:0.152941 19:0.976471 20:-0.254902 21:1 22:1 23:0.944882 24:-0.184314 25:-0.0431373 26:0.929412 27:-0.168627 28:1 29:1 30:0.647059 31:0.247059 32:0.145098 33:-0.231373 34:0.584314 35:1 36:1 37:0.510549 38:0.383399 39:1 40:1 41:1 42:1 43:1 44:0.983333 45:0.748252 46:1 47:1 48:1 49:1 
0 0 0 5.137258547547374e-10 0 1.607742362251468e-10 0 4.910086563589904e-10 0 1:1 2:1 3:1 4:1 5:1 6:1 7:1 8:1 9:1 10:0.992095 11:0.525692 12:0.952941 13:1 14:1 15:1 16:0.936759 17:0.0431373 18:0.223529 19:0.764706 20:0.945098 21:0.611111 22:1 23:0.818898 24:-0.105882 25:0.592157 26:0.952941 27:0.560784 28:0.433962 29:1 30:0.152941 31:0.388235 32:0.647059 33:0.529412 34:0.278431 35:1 36:1 37:0.864979 38:0.517787 39:1 40:1 41:1 42:1 43:1 44:1 45:1 46:1 47:1 48:1 49:1 
2.563828086727694e-10 0 0 4.204586276130334e-10 0 1.759742806175442e-09 0 0 0 1:1 2:1 3:1 4:1 5:1 6:1 7:1 8:1 9:1 10:1 11:1 12:0.976471 13:0.855422 14:1 15:1 16:0.272727 17:-0.0352941 18:0.639216 19:0.937255 20:-0.215686 21:1 22:1 23:0.0787402 24:0.160784 25:1 26:1 27:-0.0588235 28:1 29:1 30:0.0588235 31:0.639216 32:0.0196078 33:-0.0196078 34:0.0823529 35:1 36:1 37:0.932489 38:1 39:1 40:1 41:1 42:1 43:1 44:1 45:1 46:1 47:1 48:1 49:1 
0 3.079851408688e-10 0 1.184579327686303e-10 2.154123885245749e-11 0 0 1.039062512889577e-10 0 1:1 2:1 3:1 4:1 5:1 6:1 7:1 8:1 9:1 10:1 11:0.770751 12:0.858824 13:0.88755 14:1 15:1 16:1 17:0.537255 18:0.027451 19:0.458824 20:0.764706 21:1 22:1 23:1 24:0.32549 25:0.819608 26:-0.176471 27:0.952941 28:1 29:1 30:1 31:0.301961 32:1 33:0.952941 34:1 35:1 36:1 37:1 38:0.233202 39:1 40:1 41:1 42:1 43:1 44:1 45:0.398601 46:1 47:1 48:1 49:1 
3.444611894813747e-10 2.38275899492455e-10 1.11394550711913e-10 2.770829310580413e-10 4.42718222773049e-10 3.359632377682986e-10 2.896229919891707e-10 2.989130290038684e-10 3.848974456334235e-10 1:1 2:1 3:1 4:1 5:1 6:1 7:1 8:1 9:1 10:0.905138 11:0.754941 12:1 13:1 14:1 15:1 16:0.770751 17:-0.615686 18:-0.34902 19:0.654902 20:0.576471 21:0.925926 22:1 23:0.0472441 24:-0.00392157 25:0.929412 26:-0.411765 27:0.160784 28:-0.0377358 29:1 30:0.0509804 31:0.466667 32:1 33:0.45098 34:-0.254902 35:0.458128 36:1 37:-0.0295359 38:0.644269 39:1 40:1 41:1 42:1 43:1 44:0.333333 45:0.972028 46:1 47:1 48:1 49:1 
2.290036258522613e-10 2.496313390505265e-10 8.440980557285532e-12 1.759721902237574e-10 2.719093169049955e-10 2.041618982978651e-10 1.530777708767436e-10 2.227324978422404e-10 3.077655952789456e-10 1:1 2:1 3:1 4:1 5:1 6:1 7:1 8:1 9:1 10:0.992095 11:0.865613 12:1 13:1 14:1 15:1 16:1 17:-0.262745 18:-0.231373 19:0.286275 20:0.607843 21:0.574074 22:1 23:0.88189 24:-0.435294 25:0.929412 26:-0.458824 27:0.309804 28:-0.0943396 29:1 30:0.176471 31:0.0666667 32:1 33:0.607843 34:-0.00392157 35:0.82266 36:1 37:-0.0464135 38:0.620553 39:1 40:1 41:1 42:1 43:1 44:0.85 45:0.986014 46:1 47:1 48:1 49:1 
0 0 0 0 0 2.498774379740524e-09 0 0 0 1:1 2:1 3:1 4:1 5:1 6:1 7:1 8:1 9:1 10:1 11:1 12:1 13:0.24498 14:1 15:1 16:0.636364 17:0.74902 18:1 19:1 20:-0.0431373 21:1 22:1 23:-0.291339 24:0.113725 25:0.490196 26:1 27:0.0901961 28:1 29:1 30:0.364706 31:0.992157 32:0.0823529 33:-0.121569 34:0.427451 35:1 36:1 37:1 38:1 39:1 40:0.976285 41:1 42:1 43:1 44:1 45:1 46:1 47:1 48:1 49:1 
3.650577959211226e-10 3.544254101448467e-10 3.543888106214668e-11 2.188244835825076e-10 3.22094390188461e-10 2.541351691118603e-10 2.915918801197931e-10 2.376907750273777e-10 6.505391329953071e-10 1:1 2:1 3:1 4:1 5:1 6:1 7:1 8:1 9:1 10:1 11:0.976285 12:0.984314 13:0.823293 14:1 15:1 16:1 17:0.176471 18:-0.764706 19:0.403922 20:-0.254902 21:1 22:1 23:1 24:0.333333 25:0.380392 26:-0.231373 27:-0.403922 28:1 29:1 30:0.952941 31:-0.403922 32:0.741176 33:-0.239216 34:0.74902 35:1 36:1 37:0.611814 38:-0.209486 39:1 40:1 41:1 42:1 43:1 44:0.533333 45:0.272727 46:1 47:1 48:1 49:1 
7.387345423211086e-10 6.795867675629244e-10 2.724118925327896e-10 5.575206190676771e-10 8.839263862503821e-10 6.98026174519721e-10 6.822582600672262e-10 6.681271584822264e-10 8.568576430877509e-10 1:1 2:1 3:1 4:1 5:1 6:1 7:1 8:1 9:0.591489 10:-0.794466 11:0.762846 12:0.992157 13:0.991968 14:1 15:1 16:-0.367589 17:0.301961 18:0.176471 19:0.843137 20:-0.027451 21:1 22:1 23:-0.346457 24:0.984314 25:-0.270588 26:0.937255 27:-0.152941 28:0.679245 29:1 30:0.145098 31:1 32:0.529412 33:0.129412 34:0.0352941 35:0.369458 36:1 37:0.907173 38:1 39:1 40:0.209486 41:-0.537255 42:0.507042 43:1 44:1 45:1 46:1 47:1 48:1 49:1 
1.159603833803393e-10 2.928871692130141e-10 4.453077567606729e-11 1.946474187009898e-10 2.036291625335057e-10 1.021977442425337e-10 1.801234498754613e-10 1.728175607779992e-10 2.798398648219668e-10 1:1 2:1 3:1 4:1 5:1 6:1 7:1 8:1 9:1 10:0.936759 11:0.699605 12:1 13:1 14:1 15:1 16:0.920949 17:-0.254902 18:-0.568627 19:0.537255 20:0.0666667 21:0.685185 22:1 23:0.897638 24:0.560784 25:0.34902 26:-0.364706 27:-0.521569 28:0.716981 29:1 30:0.74902 31:0.278431 32:0.960784 33:0.105882 34:0.372549 35:1 36:1 37:-0.468354 38:0.810277 39:1 40:1 41:1 42:1 43:1 44:0.15 45:0.902098 46:1 47:1 48:1 49:1 
2.475043756025559e-10 2.90834038890837e-11 0 0 1.67687760695356e-10 0 0 5.891570437566836e-11 1.482771942003923e-10 1:1 2:1 3:1 4:1 5:1 6:1 7:1 8:1 9:1 10:0.889328 11:0.383399 12:0.921569 13:0.959839 14:1 15:1 16:0.936759 17:0.145098 18:-0.105882 19:0.984314 20:0.0431373 21:1 22:1 23:0.370079 24:0.976471 25:0.0431373 26:1 27:0.027451 28:1 29:1 30:0.113725 31:0.960784 32:0.631373 33:0.129412 34:0.301961 35:1 36:1 37:-0.0632911 38:0.968379 39:1 40:1 41:1 42:1 43:1 44:0.05 45:1 46:1 47:1 48:1 49:1 
9.201512464716949e-11 0 0 0 0 0 6.190526487075772e-10 0 0 1:1 2:1 3:1 4:1 5:1 6:1 7:1 8:1 9:1 10:0.992095 11:0.41502 12:0.921569 13:0.991968 14:1 15:1 16:1 17:0.247059 18:-0.396078 19:0.380392 20:0.215686 21:0.833333 22:1 23:0.755906 24:-0.270588 25:0.74902 26:-0.00392157 27:-0.137255 28:0.575472 29:1 30:-0.309804 31:0.992157 32:1 33:0.137255 34:-0.113725 35:0.980296 36:1 37:-0.21519 38:1 39:1 40:1 41:1 42:1 43:1 44:0.516667 45:1 46:1 47:1 48:1 49:1 
5.066279362772212e-10 1.489783098774693e-10 0 3.361081095650185e-10 3.040190184979932e-10 5.841834207969084e-10 6.043097729100119e-11 4.536586492290701e-10 6.286205044281151e-10 1:1 2:1 3:1 4:1 5:1 6:1 7:1 8:1 9:1 10:0.770751 11:0.913043 12:1 13:0.879518 14:0.921053 15:1 16:0.715415 17:-0.0431373 18:0.262745 19:1 20:0.662745 21:-0.0185185 22:1 23:0.299213 24:0.607843 25:0.537255 26:0.74902 27:0.121569 28:0.59434 29:1 30:0.929412 31:0.192157 32:1 33:0.341176 34:0.537255 35:1 36:1 37:1 38:0.146245 39:1 40:1 41:1 42:1 43:1 44:1 45:0.426573 46:1 47:1 48:1 49:1 
4.708166125492372e-10 3.546322422488737e-10 1.404805358311475e-10 3.032181737846185e-10 5.002852210162966e-10 3.935865602949902e-10 3.62401716349953e-10 3.328208752541424e-10 4.557973657534289e-10 1:1 2:1 3:1 4:1 5:1 6:1 7:1 8:1 9:0.982979 10:0.541502 11:0.660079 12:1 13:1 14:1 15:1 16:0.209486 17:-0.788235 18:-0.6 19:0.45098 20:-0.356863 21:0.759259 22:1 23:-0.023622 24:-0.145098 25:0.145098 26:0.137255 27:-0.701961 28:0.396226 29:1 30:-0.388235 31:0.160784 32:0.811765 33:-0.74902 34:-0.717647 35:0.931034 36:1 37:0.122363 38:0.675889 39:1 40:0.881423 41:0.898039 42:1 43:1 44:1 45:1 46:1 47:1 48:1 49:1 
0 3.875880758311142e-10 9.083873295376663e-11 2.301767389939622e-10 1.818578022190272e-10 3.560171330989488e-10 1.180432785586744e-09 1.776110468922258e-10 4.575008200050868e-10 1:1 2:1 3:1 4:1 5:1 6:1 7:1 8:1 9:1 10:0.620553 11:0.928854 12:1 13:1 14:1 15:1 16:1 17:-0.0117647 18:-0.192157 19:0.701961 20:0.741176 21:1 22:0.792208 23:-0.015748 24:0.545098 25:0.152941 26:0.960784 27:0.152941 28:1 29:0.967742 30:0.898039 31:1 32:0.0980392 33:0.968627 34:0.247059 35:1 36:1 37:1 38:1 39:0.584314 40:-0.0988142 41:0.803922 42:1 43:1 44:1 45:1 46:1 47:1 48:1 49:1 
1.071503972722146e-10 5.757361973028366e-10 1.217056250441057e-10 2.938056609380896e-10 5.064017338263906e-10 0 1.996890236962347e-10 5.953323205478931e-10 4.838483761122177e-10 1:1 2:1 3:1 4:1 5:1 6:1 7:1 8:1 9:1 10:1 11:1 12:1 13:1 14:1 15:1 16:0.185771 17:-0.2 18:0.945098 19:1 20:0.623529 21:0.666667 22:1 23:-0.0551181 24:0.552941 25:0.105882 26:0.756863 27:-0.301961 28:0.95283 29:1 30:0.890196 31:0.976471 32:-0.356863 33:-0.733333 34:0.427451 35:1 36:1 37:0.814346 38:1 39:0.984314 40:0.928854 41:1 42:1 43:1 44:1 45:1 46:1 47:1 48:1 49:1 
0 1.190003969658589e-10 0 3.030285960157483e-11 0 0 4.289964558797755e-11 3.925417059041447e-12 7.661143188078277e-10 1:1 2:1 3:1 4:1 5:1 6:1 7:1 8:1 9:1 10:0.857708 11:0.98419 12:1 13:1 14:1 15:1 16:0.905138 17:-0.372549 18:-0.2 19:0.952941 20:0.882353 21:1 22:1 23:0.448819 24:0.576471 25:0.513725 26:-0.223529 27:0.0666667 28:0.660377 29:1 30:-0.0509804 31:0.898039 32:1 33:0.741176 34:0.0588235 35:0.921182 36:1 37:0.417722 38:1 39:1 40:1 41:1 42:1 43:1 44:1 45:1 46:1 47:1 48:1 49:1 
2.969981739433395e-10 1.865236666894483e-10 1.280081448065723e-10 3.400574859554719e-10 6.398685957763241e-10 2.862296593112704e-10 1.763302930986179e-10 2.08998308849942e-10 8.032124687000428e-11 1:1 2:1 3:1 4:1 5:1 6:1 7:1 8:1 9:0.974468 10:0.992095 11:1 12:0.968627 13:0.62249 14:1 15:1 16:0.256917 17:-0.694118 18:0.0588235 19:0.968627 20:-0.317647 21:0.824074 22:1 23:-0.11811 24:-0.898039 25:0.858824 26:1 27:-0.388235 28:0.537736 29:1 30:-0.356863 31:0.0823529 32:0.129412 33:-0.231373 34:0.0509804 35:1 36:1 37:0.881857 38:1 39:0.694118 40:0.889328 41:1 42:1 43:1 44:1 45:1 46:1 47:1 48:1 49:1 
2.918782604661579e-11 8.136470276734475e-11 4.22288079865524e-11 7.705674682987915e-11 1.084040346127137e-10 3.799209153226588e-10 7.276125913194618e-11 7.825179335600758e-11 8.151654371649959e-11 1:1 2:1 3:1 4:1 5:1 6:1 7:1 8:1 9:1 10:1 11:1 12:1 13:0.927711 14:1 15:1 16:0.98419 17:0.34902 18:-0.0745098 19:0.968627 20:-0.333333 21:1 22:1 23:-0.692913 24:-0.372549 25:-0.505882 26:0.937255 27:-0.521569 28:1 29:1 30:-0.0823529 31:1 32:0.615686 33:-0.192157 34:-0.521569 35:1 36:1 37:0.578059 38:1 39:1 40:0.841897 41:0.686275 42:1 43:1 44:1 45:1 46:1 47:1 48:1 49:1 
0 0 0 0 0 7.525574169926043e-10 0 0 0 1:1 2:1 3:1 4:1 5:1 6:1 7:1 8:1 9:1 10:1 11:1 12:0.788235 13:0.156627 14:1 15:1 16:1 17:0.317647 18:0.356863 19:0.87451 20:0.129412 21:1 22:1 23:0.606299 24:0.239216 25:-0.027451 26:0.6 27:0.317647 28:1 29:1 30:0.2 31:0.733333 32:0.0509804 33:-0.168627 34:0.905882 35:1 36:1 37:0.147679 38:0.810277 39:1 40:1 41:1 42:1 43:1 44:1 45:1 46:1 47:1 48:1 49:1 
3.003454263889035e-10 0 0 0 1.270771026965505e-10 5.968069477724518e-10 0 0 7.931887469063438e-10 1:1 2:1 3:1 4:1 5:1 6:1 7:1 8:1 9:1 10:1 11:0.913043 12:0.819608 13:-0.0763052 14:1 15:1 16:0.865613 17:0.333333 18:-0.615686 19:0.396078 20:-0.113725 21:1 22:1 23:-0.00787402 24:0.207843 25:-0.0431373 26:0.976471 27:-0.129412 28:1 29:1 30:0.168627 31:0.32549 32:0.2 33:-0.239216 34:0.192157 35:1 36:1 37:0.172996 38:0.185771 39:1 40:1 41:1 42:1 43:1 44:0.683333 45:0.776224 46:1 47:1 48:1 49:1 
0 2.169811936060733e-10 3.000514808024676e-11 1.480959601691723e-10 6.96154381319965e-11 2.711301167400289e-10 0 1.011787587615237e-10 0 1:1 2:1 3:1 4:1 5:1 6:1 7:1 8:1 9:0.982979 10:0.920949 11:0.968379 12:1 13:1 14:1 15:1 16:-0.16996 17:-0.34902 18:-0.552941 19:0.968627 20:0.882353 21:0.666667 22:1 23:-0.322835 24:0.741176 25:-0.301961 26:1 27:0.309804 28:0.641509 29:1 30:0.584314 31:0.694118 32:-0.333333 33:0.458824 34:-0.32549 35:0.990148 36:1 37:1 38:1 39:0.772549 40:0.177866 41:0.858824 42:1 43:1 44:1 45:1 46:1 47:1 48:1 49:1 
0 0 0 0 0 0 0 4.32959468989994e-10 0 1:1 2:1 3:1 4:1 5:1 6:1 7:1 8:1 9:1 10:1 11:1 12:0.835294 13:0.566265 14:1 15:1 16:1 17:0.866667 18:0.0666667 19:0.811765 20:0.372549 21:1 22:1 23:1 24:-0.0352941 25:0.176471 26:0.733333 27:0.490196 28:1 29:1 30:1 31:0.137255 32:0.356863 33:-0.137255 34:0.937255 35:1 36:1 37:1 38:0.177866 39:1 40:1 41:1 42:1 43:1 44:1 45:0.776224 46:1 47:1 48:1 49:1 
5.25900977136634e-10 5.192203348386386e-10 4.396874693641157e-10 4.488735318455305e-10 5.80473993785302e-10 1.519758045843301e-09 5.096891097021575e-10 4.8357644484297e-10 8.241876650789465e-10 1:1 2:1 3:1 4:1 5:1 6:1 7:1 8:1 9:1 10:1 11:1 12:1 13:1 14:1 15:1 16:-0.288538 17:-0.286275 18:0.168627 19:1 20:0.882353 21:1 22:1 23:-0.15748 24:-0.0666667 25:-0.733333 26:0.984314 27:-0.45098 28:1 29:1 30:1 31:1 32:0.0352941 33:-0.764706 34:-0.498039 35:1 36:1 37:1 38:1 39:1 40:0.581028 41:0.937255 42:1 43:1 44:1 45:1 46:1 47:1 48:1 49:1 
0 7.107576093646949e-10 0 8.972713219896806e-11 0 0 0 0 2.938357685698672e-10 1:1 2:1 3:1 4:1 5:1 6:1 7:1 8:1 9:1 10:1 11:0.992095 12:0.780392 13:0.823293 14:1 15:1 16:1 17:0.427451 18:-0.270588 19:0.435294 20:0.372549 21:1 22:1 23:0.519685 24:0.32549 25:0.145098 26:0.2 27:0.47451 28:1 29:1 30:0.254902 31:0.913725 32:0.184314 33:0.0117647 34:0.866667 35:1 36:1 37:0.367089 38:0.920949 39:0.811765 40:0.72332 41:1 42:1 43:1 44:0.766667 45:0.79021 46:1 47:1 48:1 49:1 
0 1.634394243992025e-10 0 3.479996122286729e-10 0 0 0 0 0 1:1 2:1 3:1 4:1 5:1 6:1 7:1 8:1 9:1 10:1 11:0.968379 12:0.913725 13:0.678715 14:1 15:1 16:0.992095 17:0.223529 18:-0.152941 19:0.796078 20:-0.0901961 21:1 22:1 23:0.826772 24:0.129412 25:0.145098 26:0.34902 27:-0.294118 28:1 29:1 30:0.662745 31:0.458824 32:0.0196078 33:-0.356863 34:0.686275 35:1 36:1 37:0.654008 38:0.422925 39:0.984314 40:0.968379 41:1 42:1 43:1 44:0.95 45:0.51049 46:1 47:1 48:1 49:1 
0 0 0 0 0 1.03866972992375e-10 4.540077979305735e-11 0 0 1:1 2:1 3:1 4:1 5:1 6:1 7:1 8:1 9:1 10:1 11:1 12:0.701961 13:0.863454 14:1 15:1 16:1 17:0.929412 18:0.968627 19:0.929412 20:-0.168627 21:1 22:1 23:0.834646 24:-0.0745098 25:0.0431373 26:0.686275 27:-0.215686 28:1 29:1 30:0.301961 31:0.419608 32:0.968627 33:0.529412 34:0.843137 35:1 36:1 37:-0.232068 38:0.98419 39:1 40:1 41:1 42:1 43:1 44:1 45:1 46:1 47:1 48:1 49:1 
0 0 0 0 0 1.718090322761312e-10 0 0 0 1:1 2:1 3:1 4:1 5:1 6:1 7:1 8:1 9:1 10:1 11:1 12:1 13:0.967871 14:1 15:1 16:0.976285 17:0.121569 18:0.780392 19:1 20:0.317647 21:0.601852 22:1 23:0.409449 24:-0.027451 25:-0.145098 26:0.976471 27:0.137255 28:0.745283 29:1 30:-0.0980392 31:0.780392 32:0.709804 33:-0.0509804 34:0.317647 35:1 36:1 37:0.578059 38:1 39:1 40:1 41:1 42:1 43:1 44:1 45:1 46:1 47:1 48:1 49:1 
1.33142096661356e-09 3.83378111700366e-10 2.608296836864885e-10 4.848840808196719e-10 9.65897725093372e-10 8.811527730109204e-10 4.426447620685034e-10 4.099831061476397e-10 4.223048445125716e-10 1:1 2:1 3:1 4:1 5:0.951613 6:1 7:1 8:1 9:1 10:1 11:1 12:0.333333 13:0.51004 14:1 15:1 16:0.920949 17:0.45098 18:1 19:0.921569 20:-0.278431 21:1 22:1 23:-0.188976 24:-0.027451 25:1 26:1 27:-0.184314 28:1 29:1 30:-0.152941 31:-0.0509804 32:0.890196 33:0.866667 34:-0.184314 35:1 36:1 37:0.696203 38:0.897233 39:0.278431 40:0.312253 41:0.921569 42:1 43:1 44:1 45:1 46:1 47:1 48:1 49:1 
3.228138261612143e-10 1.757186483243078e-10 2.139481262732395e-10 1.955445150616863e-10 3.883994100920275e-10 4.408442240062375e-10 1.745256733774606e-10 3.67730730141682e-10 3.027676300333042e-10 1:1 2:1 3:1 4:1 5:1 6:1 7:1 8:1 9:1 10:1 11:1 12:0.388235 13:0.73494 14:1 15:1 16:1 17:1 18:1 19:0.921569 20:-0.254902 21:0.981481 22:1 23:0.80315 24:-0.388235 25:-0.00392157 26:-0.0352941 27:-0.396078 28:0.933962 29:1 30:0.827451 31:-0.388235 32:0.992157 33:0.913725 34:0.890196 35:1 36:1 37:0.021097 38:0.533597 39:1 40:1 41:1 42:1 43:1 44:0.733333 45:1 46:1 47:1 48:1 49:1 
1.762715515641333e-09 4.483661456786429e-10 2.354325440324344e-10 5.359360126649298e-10 7.557108724958248e-10 7.384837667628177e-10 5.637611460466811e-10 4.72133756889755e-10 7.223054923348954e-10 1:1 2:1 3:1 4:1 5:1 6:1 7:1 8:1 9:0.86383 10:1 11:0.802372 12:0.0980392 13:0.839357 14:1 15:1 16:-0.106719 17:-0.00392157 18:0.756863 19:0.968627 20:0.0352941 21:1 22:1 23:0.314961 24:0.623529 25:0.482353 26:1 27:0.168627 28:1 29:1 30:0.568627 31:0.176471 32:0.968627 33:0.976471 34:0.0666667 35:1 36:1 37:1 38:0.778656 39:-0.00392157 40:0.0434783 41:0.772549 42:1 43:1 44:1 45:1 46:1 47:1 48:1 49:1 
4.569447997987538e-10 2.46521128106662e-10 1.36925331442216e-10 1.309307508672994e-10 4.544226501541074e-10 4.010148233300173e-10 2.95431563676106e-10 3.164747628304061e-10 3.635429553785558e-10 1:1 2:1 3:1 4:1 5:1 6:1 7:1 8:1 9:0.32766 10:0.833992 11:0.73913 12:1 13:0.574297 14:1 15:1 16:0.0197628 17:-0.0117647 18:-0.262745 19:0.976471 20:0.482353 21:0.546296 22:1 24:0.937255 25:0.152941 26:1 27:0.811765 28:0.0943396 29:1 30:0.145098 31:0.992157 32:0.427451 33:0.670588 34:0.545098 35:0.320197 36:1 37:0.198312 38:1 39:0.960784 40:-0.0118577 41:-0.0745098 42:0.971831 43:1 44:0.7 45:1 46:1 47:0.974194 48:0.969466 49:1 
0 0 2.144281992863723e-10 0 0 0 0 0 0 1:1 2:1 3:1 4:1 5:1 6:1 7:1 8:1 9:1 10:1 11:1 12:1 13:0.614458 14:1 15:1 16:1 17:0.701961 18:0.380392 19:0.858824 20:-0.168627 21:0.657407 22:1 23:0.992126 24:-0.482353 25:0.176471 26:-0.027451 27:-0.301961 28:0.830189 29:1 30:0.403922 31:-0.0352941 32:1 33:1 34:1 35:1 36:1 37:0.00421941 38:0.873518 39:1 40:1 41:1 42:1 43:1 44:1 45:1 46:1 47:1 48:1 49:1 
4.436949847249951e-11 1.957750366012105e-10 9.08119634654943e-10 1.670375718141357e-10 7.297902989343351e-10 0 3.755273214496952e-10 9.177831502779518e-11 3.328219099895196e-10 1:1 2:1 3:1 4:1 5:1 6:1 7:1 8:1 9:1 10:1 11:1 12:0.913725 13:0.799197 14:1 15:1 16:1 17:1 18:1 19:0.976471 20:-0.356863 21:1 22:1 23:0.582677 24:-0.545098 25:-0.333333 26:-0.286275 27:-0.278431 28:1 29:1 30:-0.294118 31:0.72549 32:1 33:0.929412 34:0.984314 35:1 36:1 37:0.156118 38:1 39:1 40:1 41:1 42:1 43:1 44:1 45:1 46:1 47:1 48:1 49:1 
5.936591791065673e-11 0 0 0 0 0 0 0 0 1:1 2:1 3:1 4:1 5:1 6:1 7:1 8:1 9:1 10:1 11:1 12:1 13:0.526104 14:1 15:1 16:1 17:0.968627 18:0.121569 19:0.772549 20:-0.129412 21:1 22:1 23:1 24:-0.2 25:0.521569 26:0.0823529 27:0.443137 28:1 29:1 30:1 31:-0.278431 32:1 33:1 34:1 35:1 36:1 37:1 38:-0.0988142 39:1 40:1 41:1 42:1 43:1 44:1 45:0.272727 46:1 47:1 48:1 49:1 
