svm_type c_svc
kernel_type rbf
gamma 0.5
nr_class 2
total_sv 208
rho 4.01059
label 1 2
nr_sv 104 104
SV
1 1:0.568 2:0.412 
1 1:0.568 2:0.412 
0.6135332345551245 1:0.578 2:0.416 
1 1:0.578 2:0.416 
1 1:0.578 2:0.416 
1 1:0.578 2:0.416 
1 1:0.578 2:0.416 
1 1:0.578 2:0.416 
1 1:0.584 2:0.45 
1 1:0.576 2:0.414 
1 1:0.566 2:0.44 
1 1:0.576 2:0.452 
1 1:0.578 2:0.442 
1 1:0.578 2:0.442 
1 1:0.576 2:0.452 
1 1:0.576 2:0.452 
1 1:0.57 2:0.462 
1 1:0.57 2:0.462 
1 1:0.566 2:0.468 
1 1:0.566 2:0.468 
1 1:0.58 2:0.478 
1 1:0.588 2:0.478 
1 1:0.588 2:0.478 
1 1:0.594 2:0.466 
1 1:0.596 2:0.466 
1 1:0.596 2:0.466 
1 1:0.59 2:0.466 
1 1:0.59 2:0.466 
1 1:0.584 2:0.47 
1 1:0.582 2:0.468 
1 1:0.582 2:0.468 
1 1:0.582 2:0.468 
1 1:0.582 2:0.468 
1 1:0.598 2:0.486 
1 1:0.598 2:0.486 
1 1:0.582 2:0.5 
1 1:0.572 2:0.498 
1 1:0.572 2:0.498 
1 1:0.57 2:0.484 
1 1:0.588 2:0.49 
1 1:0.586 2:0.49 
1 1:0.586 2:0.49 
1 1:0.57 2:0.5 
1 1:0.568 2:0.506 
1 1:0.568 2:0.506 
1 1:0.59 2:0.51 
1 1:0.594 2:0.5 
1 1:0.594 2:0.5 
1 1:0.594 2:0.502 
1 1:0.594 2:0.502 
1 1:0.59 2:0.52 
1 1:0.584 2:0.52 
1 1:0.584 2:0.52 
1 1:0.578 2:0.524 
1 1:0.578 2:0.524 
1 1:0.578 2:0.53 
1 1:0.578 2:0.53 
1 1:0.586 2:0.532 
1 1:0.592 2:0.532 
1 1:0.592 2:0.532 
1 1:0.602 2:0.542 
1 1:0.602 2:0.542 
1 1:0.614 2:0.55 
0.1725345704481382 1:0.618 2:0.526 
1 1:0.612 2:0.524 
1 1:0.612 2:0.524 
1 1:0.606 2:0.532 
1 1:0.606 2:0.532 
1 1:0.6 2:0.544 
1 1:0.59 2:0.546 
1 1:0.59 2:0.546 
1 1:0.58 2:0.552 
1 1:0.58 2:0.552 
1 1:0.58 2:0.556 
1 1:0.58 2:0.556 
1 1:0.592 2:0.564 
1 1:0.614 2:0.564 
1 1:0.616 2:0.574 
1 1:0.604 2:0.576 
1 1:0.608 2:0.578 
1 1:0.608 2:0.578 
1 1:0.672 2:0.684 
1 1:0.624 2:0.552 
1 1:0.602 2:0.564 
1 1:0.62 2:0.552 
1 1:0.62 2:0.552 
1 1:0.676 2:0.702 
1 1:0.676 2:0.702 
1 1:0.676 2:0.708 
1 1:0.676 2:0.734 
1 1:0.688 2:0.74 
1 1:0.69 2:0.724 
1 1:0.696 2:0.754 
1 1:0.694 2:0.75 
1 1:0.694 2:0.75 
1 1:0.694 2:0.752 
1 1:0.654 2:0.752 
1 1:0.678 2:0.754 
1 1:0.686 2:0.762 
1 1:0.686 2:0.762 
1 1:0.688 2:0.77 
1 1:0.688 2:0.77 
1 1:0.688 2:0.762 
1 1:0.688 2:0.762 
-1 1:0.41 2:0.276 
-1 1:0.41 2:0.296 
-1 1:0.41 2:0.31 
-1 1:0.412 2:0.324 
-1 1:0.414 2:0.362 
-1 1:0.418 2:0.386 
-1 1:0.42 2:0.42 
-1 1:0.48 2:0.606 
-1 1:0.48 2:0.606 
-1 1:0.5 2:0.614 
-1 1:0.512 2:0.622 
-1 1:0.52 2:0.636 
-1 1:0.526 2:0.652 
-1 1:0.528 2:0.656 
-1 1:0.528 2:0.656 
-1 1:0.54 2:0.666 
-1 1:0.568 2:0.692 
-1 1:0.578 2:0.702 
-1 1:0.578 2:0.702 
-1 1:0.58 2:0.728 
-1 1:0.58 2:0.746 
-1 1:0.58 2:0.776 
-1 1:0.578 2:0.792 
-1 1:0.58 2:0.798 
-1 1:0.58 2:0.798 
-1 1:0.582 2:0.842 
-1 1:0.582 2:0.848 
-1 1:0.582 2:0.848 
-1 1:0.572 2:0.85 
-1 1:0.572 2:0.85 
-1 1:0.572 2:0.85 
-0.6151065268738904 1:0.564 2:0.846 
-1 1:0.546 2:0.78 
-1 1:0.542 2:0.75 
-1 1:0.54 2:0.74 
-1 1:0.54 2:0.74 
-1 1:0.544 2:0.728 
-1 1:0.556 2:0.712 
-1 1:0.562 2:0.706 
-1 1:0.562 2:0.706 
-1 1:0.566 2:0.728 
-1 1:0.566 2:0.738 
-1 1:0.566 2:0.738 
-1 1:0.564 2:0.742 
-1 1:0.564 2:0.742 
-1 1:0.562 2:0.754 
-1 1:0.562 2:0.778 
-1 1:0.562 2:0.794 
-1 1:0.562 2:0.826 
-1 1:0.562 2:0.84 
-1 1:0.562 2:0.792 
-1 1:0.556 2:0.742 
-1 1:0.54 2:0.72 
-1 1:0.54 2:0.72 
-1 1:0.54 2:0.72 
-1 1:0.534 2:0.712 
-1 1:0.534 2:0.712 
-1 1:0.522 2:0.702 
-1 1:0.502 2:0.644 
-1 1:0.516 2:0.656 
-1 1:0.522 2:0.686 
-1 1:0.536 2:0.698 
-1 1:0.546 2:0.7 
-1 1:0.546 2:0.7 
-1 1:0.532 2:0.696 
-1 1:0.532 2:0.696 
-1 1:0.508 2:0.682 
-1 1:0.504 2:0.632 
-1 1:0.512 2:0.638 
-1 1:0.512 2:0.638 
-1 1:0.502 2:0.646 
-1 1:0.502 2:0.646 
-1 1:0.498 2:0.654 
-1 1:0.498 2:0.654 
-1 1:0.366 2:0.276 
-1 1:0.366 2:0.276 
-1 1:0.372 2:0.28 
-1 1:0.372 2:0.28 
-1 1:0.378 2:0.282 
-1 1:0.378 2:0.282 
-1 1:0.378 2:0.29 
-1 1:0.378 2:0.29 
-1 1:0.388 2:0.294 
-1 1:0.394 2:0.312 
-1 1:0.396 2:0.318 
-1 1:0.396 2:0.318 
-1 1:0.376 2:0.32 
-1 1:0.384 2:0.332 
-1 1:0.414 2:0.43 
-1 1:0.406 2:0.41 
-1 1:0.406 2:0.394 
-1 1:0.406 2:0.378 
-1 1:0.406 2:0.348 
-1 1:0.408 2:0.35 
-1 1:0.408 2:0.35 
-1 1:0.368 2:0.306 
-1 1:0.366 2:0.298 
-1 1:0.366 2:0.298 
-1 1:0.404 2:0.398 
-1 1:0.394 2:0.342 
-1 1:0.398 2:0.354 
-1 1:0.396 2:0.374 
-0.9856682939784625 1:0.396 2:0.384 
-0.18529298415091 1:0.396 2:0.384 
